digraph Tree {
node [shape=box, fontname="helvetica"] ;
edge [fontname="helvetica"] ;
0 [label="X[1] <= 10.675\nsquared_error = 9715.907\nsamples = 477\nvalue = 192.373"] ;
1 [label="X[1] <= -8.905\nsquared_error = 5758.304\nsamples = 416\nvalue = 169.37"] ;
0 -> 1 [labeldistance=2.5, labelangle=45, headlabel="True"] ;
2 [label="X[0] <= -14.495\nsquared_error = 7644.568\nsamples = 33\nvalue = 239.001"] ;
1 -> 2 ;
3 [label="X[1] <= -191.515\nsquared_error = 58.139\nsamples = 8\nvalue = 122.511"] ;
2 -> 3 ;
4 [label="X[0] <= -45.081\nsquared_error = 29.717\nsamples = 5\nvalue = 127.292"] ;
3 -> 4 ;
5 [label="X[1] <= -378.715\nsquared_error = 0.002\nsamples = 2\nvalue = 120.92"] ;
4 -> 5 ;
6 [label="squared_error = 0.0\nsamples = 1\nvalue = 120.88"] ;
5 -> 6 ;
7 [label="squared_error = 0.0\nsamples = 1\nvalue = 120.96"] ;
5 -> 7 ;
8 [label="X[1] <= -369.755\nsquared_error = 4.413\nsamples = 3\nvalue = 131.54"] ;
4 -> 8 ;
9 [label="X[1] <= -374.54\nsquared_error = 1.392\nsamples = 2\nvalue = 130.22"] ;
8 -> 9 ;
10 [label="squared_error = 0.0\nsamples = 1\nvalue = 131.4"] ;
9 -> 10 ;
11 [label="squared_error = 0.0\nsamples = 1\nvalue = 129.04"] ;
9 -> 11 ;
12 [label="squared_error = 0.0\nsamples = 1\nvalue = 134.18"] ;
8 -> 12 ;
13 [label="X[0] <= -41.226\nsquared_error = 3.93\nsamples = 3\nvalue = 114.543"] ;
3 -> 13 ;
14 [label="squared_error = 0.0\nsamples = 1\nvalue = 112.82"] ;
13 -> 14 ;
15 [label="X[0] <= -36.453\nsquared_error = 3.667\nsamples = 2\nvalue = 115.405"] ;
13 -> 15 ;
16 [label="squared_error = 0.0\nsamples = 1\nvalue = 117.32"] ;
15 -> 16 ;
17 [label="squared_error = -0.0\nsamples = 1\nvalue = 113.49"] ;
15 -> 17 ;
18 [label="X[0] <= -1.327\nsquared_error = 4340.354\nsamples = 25\nvalue = 276.277"] ;
2 -> 18 ;
19 [label="X[1] <= -16.415\nsquared_error = 2657.8\nsamples = 20\nvalue = 293.812"] ;
18 -> 19 ;
20 [label="X[1] <= -25.365\nsquared_error = 521.172\nsamples = 13\nvalue = 262.382"] ;
19 -> 20 ;
21 [label="X[1] <= -47.755\nsquared_error = 419.601\nsamples = 11\nvalue = 267.672"] ;
20 -> 21 ;
22 [label="squared_error = 0.0\nsamples = 1\nvalue = 229.24"] ;
21 -> 22 ;
23 [label="X[1] <= -27.04\nsquared_error = 299.09\nsamples = 10\nvalue = 271.515"] ;
21 -> 23 ;
24 [label="X[0] <= -3.906\nsquared_error = 244.542\nsamples = 9\nvalue = 268.552"] ;
23 -> 24 ;
25 [label="X[1] <= -35.33\nsquared_error = 74.228\nsamples = 4\nvalue = 281.902"] ;
24 -> 25 ;
26 [label="X[0] <= -5.829\nsquared_error = 0.006\nsamples = 2\nvalue = 273.44"] ;
25 -> 26 ;
27 [label="squared_error = 0.0\nsamples = 1\nvalue = 273.36"] ;
26 -> 27 ;
28 [label="squared_error = 0.0\nsamples = 1\nvalue = 273.52"] ;
26 -> 28 ;
29 [label="X[0] <= -4.164\nsquared_error = 5.221\nsamples = 2\nvalue = 290.365"] ;
25 -> 29 ;
30 [label="squared_error = 0.0\nsamples = 1\nvalue = 292.65"] ;
29 -> 30 ;
31 [label="squared_error = -0.0\nsamples = 1\nvalue = 288.08"] ;
29 -> 31 ;
32 [label="X[0] <= -3.28\nsquared_error = 124.143\nsamples = 5\nvalue = 257.872"] ;
24 -> 32 ;
33 [label="X[0] <= -3.822\nsquared_error = 6.91\nsamples = 3\nvalue = 249.253"] ;
32 -> 33 ;
34 [label="squared_error = 0.0\nsamples = 1\nvalue = 246.67"] ;
33 -> 34 ;
35 [label="X[0] <= -3.793\nsquared_error = 5.359\nsamples = 2\nvalue = 250.545"] ;
33 -> 35 ;
36 [label="squared_error = 0.0\nsamples = 1\nvalue = 252.86"] ;
35 -> 36 ;
37 [label="squared_error = -0.0\nsamples = 1\nvalue = 248.23"] ;
35 -> 37 ;
38 [label="X[0] <= -2.484\nsquared_error = 21.437\nsamples = 2\nvalue = 270.8"] ;
32 -> 38 ;
39 [label="squared_error = 0.0\nsamples = 1\nvalue = 266.17"] ;
38 -> 39 ;
40 [label="squared_error = 0.0\nsamples = 1\nvalue = 275.43"] ;
38 -> 40 ;
41 [label="squared_error = 0.0\nsamples = 1\nvalue = 298.18"] ;
23 -> 41 ;
42 [label="X[0] <= -4.26\nsquared_error = 79.566\nsamples = 2\nvalue = 233.29"] ;
20 -> 42 ;
43 [label="squared_error = 0.0\nsamples = 1\nvalue = 224.37"] ;
42 -> 43 ;
44 [label="squared_error = -0.0\nsamples = 1\nvalue = 242.21"] ;
42 -> 44 ;
45 [label="X[0] <= -2.785\nsquared_error = 1384.299\nsamples = 7\nvalue = 352.181"] ;
19 -> 45 ;
46 [label="X[1] <= -14.52\nsquared_error = 16.779\nsamples = 4\nvalue = 375.718"] ;
45 -> 46 ;
47 [label="X[1] <= -14.92\nsquared_error = 1.626\nsamples = 2\nvalue = 371.735"] ;
46 -> 47 ;
48 [label="squared_error = 0.0\nsamples = 1\nvalue = 373.01"] ;
47 -> 48 ;
49 [label="squared_error = -0.0\nsamples = 1\nvalue = 370.46"] ;
47 -> 49 ;
50 [label="X[1] <= -11.56\nsquared_error = 0.212\nsamples = 2\nvalue = 379.7"] ;
46 -> 50 ;
51 [label="squared_error = 0.0\nsamples = 1\nvalue = 379.24"] ;
50 -> 51 ;
52 [label="squared_error = -0.0\nsamples = 1\nvalue = 380.16"] ;
50 -> 52 ;
53 [label="X[1] <= -13.265\nsquared_error = 1484.269\nsamples = 3\nvalue = 320.8"] ;
45 -> 53 ;
54 [label="squared_error = 0.0\nsamples = 1\nvalue = 371.38"] ;
53 -> 54 ;
55 [label="X[0] <= -1.976\nsquared_error = 307.652\nsamples = 2\nvalue = 295.51"] ;
53 -> 55 ;
56 [label="squared_error = 0.0\nsamples = 1\nvalue = 277.97"] ;
55 -> 56 ;
57 [label="squared_error = 0.0\nsamples = 1\nvalue = 313.05"] ;
55 -> 57 ;
58 [label="X[0] <= 0.326\nsquared_error = 4921.187\nsamples = 5\nvalue = 206.138"] ;
18 -> 58 ;
59 [label="X[1] <= -10.4\nsquared_error = 23.232\nsamples = 2\nvalue = 121.18"] ;
58 -> 59 ;
60 [label="squared_error = 0.0\nsamples = 1\nvalue = 116.36"] ;
59 -> 60 ;
61 [label="squared_error = -0.0\nsamples = 1\nvalue = 126.0"] ;
59 -> 61 ;
62 [label="X[0] <= 1.925\nsquared_error = 166.644\nsamples = 3\nvalue = 262.777"] ;
58 -> 62 ;
63 [label="squared_error = 0.0\nsamples = 1\nvalue = 244.93"] ;
62 -> 63 ;
64 [label="X[1] <= -15.17\nsquared_error = 11.089\nsamples = 2\nvalue = 271.7"] ;
62 -> 64 ;
65 [label="squared_error = 0.0\nsamples = 1\nvalue = 268.37"] ;
64 -> 65 ;
66 [label="squared_error = -0.0\nsamples = 1\nvalue = 275.03"] ;
64 -> 66 ;
67 [label="X[1] <= 5.77\nsquared_error = 5142.042\nsamples = 383\nvalue = 163.371"] ;
1 -> 67 ;
68 [label="X[0] <= 4.752\nsquared_error = 4222.455\nsamples = 322\nvalue = 156.148"] ;
67 -> 68 ;
69 [label="X[0] <= 3.362\nsquared_error = 4382.921\nsamples = 302\nvalue = 158.863"] ;
68 -> 69 ;
70 [label="X[1] <= -1.825\nsquared_error = 3819.078\nsamples = 293\nvalue = 156.94"] ;
69 -> 70 ;
71 [label="X[0] <= 1.459\nsquared_error = 1794.512\nsamples = 93\nvalue = 145.039"] ;
70 -> 71 ;
72 [label="X[0] <= -2.021\nsquared_error = 1460.176\nsamples = 88\nvalue = 142.073"] ;
71 -> 72 ;
73 [label="X[0] <= -4.489\nsquared_error = 5245.84\nsamples = 8\nvalue = 166.708"] ;
72 -> 73 ;
74 [label="X[0] <= -7.088\nsquared_error = 7.686\nsamples = 5\nvalue = 111.333"] ;
73 -> 74 ;
75 [label="X[0] <= -10.944\nsquared_error = 3.299\nsamples = 4\nvalue = 112.456"] ;
74 -> 75 ;
76 [label="X[0] <= -25.826\nsquared_error = 2.408\nsamples = 3\nvalue = 113.162"] ;
75 -> 76 ;
77 [label="squared_error = 0.0\nsamples = 1\nvalue = 112.0"] ;
76 -> 77 ;
78 [label="X[0] <= -18.03\nsquared_error = 2.6\nsamples = 2\nvalue = 113.742"] ;
76 -> 78 ;
79 [label="squared_error = 0.0\nsamples = 1\nvalue = 115.355"] ;
78 -> 79 ;
80 [label="squared_error = -0.0\nsamples = 1\nvalue = 112.13"] ;
78 -> 80 ;
81 [label="squared_error = -0.0\nsamples = 1\nvalue = 110.34"] ;
75 -> 81 ;
82 [label="squared_error = -0.0\nsamples = 1\nvalue = 106.84"] ;
74 -> 82 ;
83 [label="X[0] <= -2.553\nsquared_error = 347.633\nsamples = 3\nvalue = 259.0"] ;
73 -> 83 ;
84 [label="X[1] <= -4.715\nsquared_error = 1.102\nsamples = 2\nvalue = 245.83"] ;
83 -> 84 ;
85 [label="squared_error = 0.0\nsamples = 1\nvalue = 246.88"] ;
84 -> 85 ;
86 [label="squared_error = 0.0\nsamples = 1\nvalue = 244.78"] ;
84 -> 86 ;
87 [label="squared_error = 0.0\nsamples = 1\nvalue = 285.34"] ;
83 -> 87 ;
88 [label="X[1] <= -2.185\nsquared_error = 1014.852\nsamples = 80\nvalue = 139.61"] ;
72 -> 88 ;
89 [label="X[1] <= -2.49\nsquared_error = 1158.533\nsamples = 67\nvalue = 142.098"] ;
88 -> 89 ;
90 [label="X[0] <= 0.016\nsquared_error = 782.499\nsamples = 62\nvalue = 139.193"] ;
89 -> 90 ;
91 [label="X[0] <= -0.797\nsquared_error = 860.477\nsamples = 52\nvalue = 142.352"] ;
90 -> 91 ;
92 [label="X[0] <= -1.366\nsquared_error = 215.901\nsamples = 24\nvalue = 133.336"] ;
91 -> 92 ;
93 [label="X[1] <= -5.382\nsquared_error = 32.286\nsamples = 5\nvalue = 120.708"] ;
92 -> 93 ;
94 [label="X[0] <= -1.529\nsquared_error = 5.059\nsamples = 4\nvalue = 123.365"] ;
93 -> 94 ;
95 [label="X[1] <= -8.665\nsquared_error = 0.018\nsamples = 2\nvalue = 121.125"] ;
94 -> 95 ;
96 [label="squared_error = 0.0\nsamples = 1\nvalue = 120.99"] ;
95 -> 96 ;
97 [label="squared_error = 0.0\nsamples = 1\nvalue = 121.26"] ;
95 -> 97 ;
98 [label="X[0] <= -1.412\nsquared_error = 0.065\nsamples = 2\nvalue = 125.605"] ;
94 -> 98 ;
99 [label="squared_error = 0.0\nsamples = 1\nvalue = 125.35"] ;
98 -> 99 ;
100 [label="squared_error = 0.0\nsamples = 1\nvalue = 125.86"] ;
98 -> 100 ;
101 [label="squared_error = 0.0\nsamples = 1\nvalue = 110.08"] ;
93 -> 101 ;
102 [label="X[0] <= -1.307\nsquared_error = 211.208\nsamples = 19\nvalue = 136.66"] ;
92 -> 102 ;
103 [label="squared_error = 0.0\nsamples = 1\nvalue = 172.17"] ;
102 -> 103 ;
104 [label="X[1] <= -5.945\nsquared_error = 148.996\nsamples = 18\nvalue = 134.687"] ;
102 -> 104 ;
105 [label="X[1] <= -6.215\nsquared_error = 215.411\nsamples = 3\nvalue = 151.36"] ;
104 -> 105 ;
106 [label="X[0] <= -1.013\nsquared_error = 3.61\nsamples = 2\nvalue = 141.04"] ;
105 -> 106 ;
107 [label="squared_error = 0.0\nsamples = 1\nvalue = 142.94"] ;
106 -> 107 ;
108 [label="squared_error = 0.0\nsamples = 1\nvalue = 139.14"] ;
106 -> 108 ;
109 [label="squared_error = 0.0\nsamples = 1\nvalue = 172.0"] ;
105 -> 109 ;
110 [label="X[1] <= -3.235\nsquared_error = 68.995\nsamples = 15\nvalue = 131.352"] ;
104 -> 110 ;
111 [label="X[0] <= -1.272\nsquared_error = 44.987\nsamples = 12\nvalue = 129.244"] ;
110 -> 111 ;
112 [label="squared_error = 0.0\nsamples = 1\nvalue = 143.43"] ;
111 -> 112 ;
113 [label="X[1] <= -5.305\nsquared_error = 29.118\nsamples = 11\nvalue = 127.954"] ;
111 -> 113 ;
114 [label="X[0] <= -0.852\nsquared_error = 34.095\nsamples = 4\nvalue = 131.54"] ;
113 -> 114 ;
115 [label="X[0] <= -0.973\nsquared_error = 1.37\nsamples = 3\nvalue = 128.22"] ;
114 -> 115 ;
116 [label="squared_error = 0.0\nsamples = 1\nvalue = 129.71"] ;
115 -> 116 ;
117 [label="X[1] <= -5.585\nsquared_error = 0.391\nsamples = 2\nvalue = 127.475"] ;
115 -> 117 ;
118 [label="squared_error = 0.0\nsamples = 1\nvalue = 126.85"] ;
117 -> 118 ;
119 [label="squared_error = -0.0\nsamples = 1\nvalue = 128.1"] ;
117 -> 119 ;
120 [label="squared_error = 0.0\nsamples = 1\nvalue = 141.5"] ;
114 -> 120 ;
121 [label="X[0] <= -0.82\nsquared_error = 14.728\nsamples = 7\nvalue = 125.905"] ;
113 -> 121 ;
122 [label="X[0] <= -0.909\nsquared_error = 12.665\nsamples = 6\nvalue = 126.708"] ;
121 -> 122 ;
123 [label="X[1] <= -4.035\nsquared_error = 9.273\nsamples = 4\nvalue = 124.922"] ;
122 -> 123 ;
124 [label="X[0] <= -1.137\nsquared_error = 8.722\nsamples = 3\nvalue = 125.877"] ;
123 -> 124 ;
125 [label="X[0] <= -1.23\nsquared_error = 1.124\nsamples = 2\nvalue = 123.88"] ;
124 -> 125 ;
126 [label="squared_error = 0.0\nsamples = 1\nvalue = 122.82"] ;
125 -> 126 ;
127 [label="squared_error = 0.0\nsamples = 1\nvalue = 124.94"] ;
125 -> 127 ;
128 [label="squared_error = -0.0\nsamples = 1\nvalue = 129.87"] ;
124 -> 128 ;
129 [label="squared_error = 0.0\nsamples = 1\nvalue = 122.06"] ;
123 -> 129 ;
130 [label="X[0] <= -0.851\nsquared_error = 0.314\nsamples = 2\nvalue = 130.28"] ;
122 -> 130 ;
131 [label="squared_error = 0.0\nsamples = 1\nvalue = 129.72"] ;
130 -> 131 ;
132 [label="squared_error = 0.0\nsamples = 1\nvalue = 130.84"] ;
130 -> 132 ;
133 [label="squared_error = -0.0\nsamples = 1\nvalue = 121.085"] ;
121 -> 133 ;
134 [label="X[1] <= -2.835\nsquared_error = 76.104\nsamples = 3\nvalue = 139.787"] ;
110 -> 134 ;
135 [label="X[1] <= -3.045\nsquared_error = 0.011\nsamples = 2\nvalue = 145.955"] ;
134 -> 135 ;
136 [label="squared_error = 0.0\nsamples = 1\nvalue = 145.85"] ;
135 -> 136 ;
137 [label="squared_error = 0.0\nsamples = 1\nvalue = 146.06"] ;
135 -> 137 ;
138 [label="squared_error = 0.0\nsamples = 1\nvalue = 127.45"] ;
134 -> 138 ;
139 [label="X[0] <= -0.742\nsquared_error = 1283.588\nsamples = 28\nvalue = 150.079"] ;
91 -> 139 ;
140 [label="X[0] <= -0.749\nsquared_error = 6771.867\nsamples = 3\nvalue = 203.973"] ;
139 -> 140 ;
141 [label="X[1] <= -4.15\nsquared_error = 8.88\nsamples = 2\nvalue = 145.81"] ;
140 -> 141 ;
142 [label="squared_error = 0.0\nsamples = 1\nvalue = 148.79"] ;
141 -> 142 ;
143 [label="squared_error = 0.0\nsamples = 1\nvalue = 142.83"] ;
141 -> 143 ;
144 [label="squared_error = 0.0\nsamples = 1\nvalue = 320.3"] ;
140 -> 144 ;
145 [label="X[0] <= -0.043\nsquared_error = 234.623\nsamples = 25\nvalue = 143.612"] ;
139 -> 145 ;
146 [label="X[0] <= -0.428\nsquared_error = 211.509\nsamples = 24\nvalue = 142.465"] ;
145 -> 146 ;
147 [label="X[0] <= -0.669\nsquared_error = 271.271\nsamples = 12\nvalue = 147.794"] ;
146 -> 147 ;
148 [label="X[0] <= -0.725\nsquared_error = 83.967\nsamples = 5\nvalue = 138.438"] ;
147 -> 148 ;
149 [label="squared_error = 0.0\nsamples = 1\nvalue = 127.14"] ;
148 -> 149 ;
150 [label="X[1] <= -6.31\nsquared_error = 65.07\nsamples = 4\nvalue = 141.262"] ;
148 -> 150 ;
151 [label="squared_error = 0.0\nsamples = 1\nvalue = 127.85"] ;
150 -> 151 ;
152 [label="X[1] <= -5.175\nsquared_error = 6.807\nsamples = 3\nvalue = 145.733"] ;
150 -> 152 ;
153 [label="squared_error = 0.0\nsamples = 1\nvalue = 149.03"] ;
152 -> 153 ;
154 [label="X[0] <= -0.705\nsquared_error = 2.059\nsamples = 2\nvalue = 144.085"] ;
152 -> 154 ;
155 [label="squared_error = 0.0\nsamples = 1\nvalue = 142.65"] ;
154 -> 155 ;
156 [label="squared_error = -0.0\nsamples = 1\nvalue = 145.52"] ;
154 -> 156 ;
157 [label="X[1] <= -7.055\nsquared_error = 297.879\nsamples = 7\nvalue = 154.476"] ;
147 -> 157 ;
158 [label="X[1] <= -8.345\nsquared_error = 50.268\nsamples = 2\nvalue = 141.03"] ;
157 -> 158 ;
159 [label="squared_error = 0.0\nsamples = 1\nvalue = 148.12"] ;
158 -> 159 ;
160 [label="squared_error = 0.0\nsamples = 1\nvalue = 133.94"] ;
158 -> 160 ;
161 [label="X[0] <= -0.543\nsquared_error = 295.672\nsamples = 5\nvalue = 159.855"] ;
157 -> 161 ;
162 [label="X[0] <= -0.639\nsquared_error = 303.821\nsamples = 3\nvalue = 151.295"] ;
161 -> 162 ;
163 [label="squared_error = 0.0\nsamples = 1\nvalue = 174.835"] ;
162 -> 163 ;
164 [label="X[1] <= -3.21\nsquared_error = 40.132\nsamples = 2\nvalue = 139.525"] ;
162 -> 164 ;
165 [label="squared_error = 0.0\nsamples = 1\nvalue = 133.19"] ;
164 -> 165 ;
166 [label="squared_error = 0.0\nsamples = 1\nvalue = 145.86"] ;
164 -> 166 ;
167 [label="X[1] <= -4.825\nsquared_error = 8.673\nsamples = 2\nvalue = 172.695"] ;
161 -> 167 ;
168 [label="squared_error = 0.0\nsamples = 1\nvalue = 169.75"] ;
167 -> 168 ;
169 [label="squared_error = 0.0\nsamples = 1\nvalue = 175.64"] ;
167 -> 169 ;
170 [label="X[0] <= -0.13\nsquared_error = 94.961\nsamples = 12\nvalue = 137.137"] ;
146 -> 170 ;
171 [label="X[0] <= -0.213\nsquared_error = 78.776\nsamples = 9\nvalue = 133.706"] ;
170 -> 171 ;
172 [label="X[0] <= -0.385\nsquared_error = 75.909\nsamples = 6\nvalue = 136.898"] ;
171 -> 172 ;
173 [label="X[0] <= -0.401\nsquared_error = 4.666\nsamples = 2\nvalue = 128.76"] ;
172 -> 173 ;
174 [label="squared_error = 0.0\nsamples = 1\nvalue = 130.92"] ;
173 -> 174 ;
175 [label="squared_error = -0.0\nsamples = 1\nvalue = 126.6"] ;
173 -> 175 ;
176 [label="X[1] <= -2.975\nsquared_error = 61.857\nsamples = 4\nvalue = 140.968"] ;
172 -> 176 ;
177 [label="X[1] <= -6.46\nsquared_error = 42.301\nsamples = 3\nvalue = 144.137"] ;
176 -> 177 ;
178 [label="squared_error = 0.0\nsamples = 1\nvalue = 134.99"] ;
177 -> 178 ;
179 [label="X[0] <= -0.309\nsquared_error = 0.706\nsamples = 2\nvalue = 148.71"] ;
177 -> 179 ;
180 [label="squared_error = 0.0\nsamples = 1\nvalue = 149.55"] ;
179 -> 180 ;
181 [label="squared_error = 0.0\nsamples = 1\nvalue = 147.87"] ;
179 -> 181 ;
182 [label="squared_error = -0.0\nsamples = 1\nvalue = 131.46"] ;
176 -> 182 ;
183 [label="X[0] <= -0.154\nsquared_error = 23.347\nsamples = 3\nvalue = 127.32"] ;
171 -> 183 ;
184 [label="X[1] <= -3.065\nsquared_error = 0.137\nsamples = 2\nvalue = 123.91"] ;
183 -> 184 ;
185 [label="squared_error = 0.0\nsamples = 1\nvalue = 123.54"] ;
184 -> 185 ;
186 [label="squared_error = 0.0\nsamples = 1\nvalue = 124.28"] ;
184 -> 186 ;
187 [label="squared_error = 0.0\nsamples = 1\nvalue = 134.14"] ;
183 -> 187 ;
188 [label="X[1] <= -4.215\nsquared_error = 2.244\nsamples = 3\nvalue = 147.43"] ;
170 -> 188 ;
189 [label="squared_error = 0.0\nsamples = 1\nvalue = 148.97"] ;
188 -> 189 ;
190 [label="X[0] <= -0.096\nsquared_error = 1.588\nsamples = 2\nvalue = 146.66"] ;
188 -> 190 ;
191 [label="squared_error = -0.0\nsamples = 1\nvalue = 145.4"] ;
190 -> 191 ;
192 [label="squared_error = -0.0\nsamples = 1\nvalue = 147.92"] ;
190 -> 192 ;
193 [label="squared_error = 0.0\nsamples = 1\nvalue = 171.14"] ;
145 -> 193 ;
194 [label="X[0] <= 0.794\nsquared_error = 55.345\nsamples = 10\nvalue = 122.768"] ;
90 -> 194 ;
195 [label="X[1] <= -5.175\nsquared_error = 26.898\nsamples = 7\nvalue = 126.693"] ;
194 -> 195 ;
196 [label="X[0] <= 0.094\nsquared_error = 0.226\nsamples = 2\nvalue = 131.485"] ;
195 -> 196 ;
197 [label="squared_error = 0.0\nsamples = 1\nvalue = 131.01"] ;
196 -> 197 ;
198 [label="squared_error = -0.0\nsamples = 1\nvalue = 131.96"] ;
196 -> 198 ;
199 [label="X[1] <= -2.6\nsquared_error = 24.706\nsamples = 5\nvalue = 124.776"] ;
195 -> 199 ;
200 [label="X[0] <= 0.383\nsquared_error = 1.445\nsamples = 3\nvalue = 120.843"] ;
199 -> 200 ;
201 [label="X[1] <= -3.655\nsquared_error = 0.009\nsamples = 2\nvalue = 119.995"] ;
200 -> 201 ;
202 [label="squared_error = 0.0\nsamples = 1\nvalue = 120.09"] ;
201 -> 202 ;
203 [label="squared_error = 0.0\nsamples = 1\nvalue = 119.9"] ;
201 -> 203 ;
204 [label="squared_error = -0.0\nsamples = 1\nvalue = 122.54"] ;
200 -> 204 ;
205 [label="X[0] <= 0.326\nsquared_error = 1.6\nsamples = 2\nvalue = 130.675"] ;
199 -> 205 ;
206 [label="squared_error = 0.0\nsamples = 1\nvalue = 129.41"] ;
205 -> 206 ;
207 [label="squared_error = -0.0\nsamples = 1\nvalue = 131.94"] ;
205 -> 207 ;
208 [label="X[1] <= -3.975\nsquared_error = 1.91\nsamples = 3\nvalue = 113.61"] ;
194 -> 208 ;
209 [label="X[1] <= -5.335\nsquared_error = 0.436\nsamples = 2\nvalue = 114.51"] ;
208 -> 209 ;
210 [label="squared_error = 0.0\nsamples = 1\nvalue = 113.85"] ;
209 -> 210 ;
211 [label="squared_error = 0.0\nsamples = 1\nvalue = 115.17"] ;
209 -> 211 ;
212 [label="squared_error = 0.0\nsamples = 1\nvalue = 111.81"] ;
208 -> 212 ;
213 [label="X[1] <= -2.36\nsquared_error = 4419.145\nsamples = 5\nvalue = 178.12"] ;
89 -> 213 ;
214 [label="squared_error = 0.0\nsamples = 1\nvalue = 307.71"] ;
213 -> 214 ;
215 [label="X[1] <= -2.28\nsquared_error = 275.942\nsamples = 4\nvalue = 145.722"] ;
213 -> 215 ;
216 [label="squared_error = 0.0\nsamples = 1\nvalue = 172.26"] ;
215 -> 216 ;
217 [label="X[0] <= -0.412\nsquared_error = 54.927\nsamples = 3\nvalue = 136.877"] ;
215 -> 217 ;
218 [label="X[0] <= -0.531\nsquared_error = 10.017\nsamples = 2\nvalue = 131.965"] ;
217 -> 218 ;
219 [label="squared_error = 0.0\nsamples = 1\nvalue = 128.8"] ;
218 -> 219 ;
220 [label="squared_error = -0.0\nsamples = 1\nvalue = 135.13"] ;
218 -> 220 ;
221 [label="squared_error = 0.0\nsamples = 1\nvalue = 146.7"] ;
217 -> 221 ;
222 [label="X[0] <= 0.227\nsquared_error = 77.903\nsamples = 13\nvalue = 126.783"] ;
88 -> 222 ;
223 [label="X[0] <= 0.048\nsquared_error = 69.995\nsamples = 9\nvalue = 130.266"] ;
222 -> 223 ;
224 [label="X[0] <= -0.771\nsquared_error = 57.867\nsamples = 8\nvalue = 128.742"] ;
223 -> 224 ;
225 [label="X[0] <= -0.971\nsquared_error = 109.412\nsamples = 2\nvalue = 136.37"] ;
224 -> 225 ;
226 [label="squared_error = 0.0\nsamples = 1\nvalue = 125.91"] ;
225 -> 226 ;
227 [label="squared_error = 0.0\nsamples = 1\nvalue = 146.83"] ;
225 -> 227 ;
228 [label="X[1] <= -2.13\nsquared_error = 14.828\nsamples = 6\nvalue = 126.2"] ;
224 -> 228 ;
229 [label="squared_error = 0.0\nsamples = 1\nvalue = 132.54"] ;
228 -> 229 ;
230 [label="X[0] <= -0.617\nsquared_error = 8.146\nsamples = 5\nvalue = 124.932"] ;
228 -> 230 ;
231 [label="squared_error = 0.0\nsamples = 1\nvalue = 119.98"] ;
230 -> 231 ;
232 [label="X[0] <= -0.497\nsquared_error = 2.52\nsamples = 4\nvalue = 126.17"] ;
230 -> 232 ;
233 [label="squared_error = 0.0\nsamples = 1\nvalue = 128.91"] ;
232 -> 233 ;
234 [label="X[1] <= -1.93\nsquared_error = 0.023\nsamples = 3\nvalue = 125.257"] ;
232 -> 234 ;
235 [label="X[1] <= -2.025\nsquared_error = 0.006\nsamples = 2\nvalue = 125.355"] ;
234 -> 235 ;
236 [label="squared_error = 0.0\nsamples = 1\nvalue = 125.28"] ;
235 -> 236 ;
237 [label="squared_error = 0.0\nsamples = 1\nvalue = 125.43"] ;
235 -> 237 ;
238 [label="squared_error = 0.0\nsamples = 1\nvalue = 125.06"] ;
234 -> 238 ;
239 [label="squared_error = -0.0\nsamples = 1\nvalue = 142.45"] ;
223 -> 239 ;
240 [label="X[0] <= 0.811\nsquared_error = 7.015\nsamples = 4\nvalue = 118.948"] ;
222 -> 240 ;
241 [label="X[1] <= -1.985\nsquared_error = 0.038\nsamples = 2\nvalue = 121.585"] ;
240 -> 241 ;
242 [label="squared_error = 0.0\nsamples = 1\nvalue = 121.39"] ;
241 -> 242 ;
243 [label="squared_error = -0.0\nsamples = 1\nvalue = 121.78"] ;
241 -> 243 ;
244 [label="X[0] <= 0.998\nsquared_error = 0.078\nsamples = 2\nvalue = 116.31"] ;
240 -> 244 ;
245 [label="squared_error = 0.0\nsamples = 1\nvalue = 116.59"] ;
244 -> 245 ;
246 [label="squared_error = -0.0\nsamples = 1\nvalue = 116.03"] ;
244 -> 246 ;
247 [label="X[1] <= -6.245\nsquared_error = 4799.041\nsamples = 5\nvalue = 197.24"] ;
71 -> 247 ;
248 [label="X[1] <= -7.33\nsquared_error = 300.849\nsamples = 2\nvalue = 258.755"] ;
247 -> 248 ;
249 [label="squared_error = 0.0\nsamples = 1\nvalue = 276.1"] ;
248 -> 249 ;
250 [label="squared_error = 0.0\nsamples = 1\nvalue = 241.41"] ;
248 -> 250 ;
251 [label="X[0] <= 1.78\nsquared_error = 3593.286\nsamples = 3\nvalue = 156.23"] ;
247 -> 251 ;
252 [label="squared_error = 0.0\nsamples = 1\nvalue = 240.91"] ;
251 -> 252 ;
253 [label="X[0] <= 2.552\nsquared_error = 11.903\nsamples = 2\nvalue = 113.89"] ;
251 -> 253 ;
254 [label="squared_error = 0.0\nsamples = 1\nvalue = 117.34"] ;
253 -> 254 ;
255 [label="squared_error = 0.0\nsamples = 1\nvalue = 110.44"] ;
253 -> 255 ;
256 [label="X[1] <= -1.705\nsquared_error = 4664.008\nsamples = 200\nvalue = 162.475"] ;
70 -> 256 ;
257 [label="X[0] <= -0.653\nsquared_error = 11991.78\nsamples = 3\nvalue = 299.83"] ;
256 -> 257 ;
258 [label="squared_error = 0.0\nsamples = 1\nvalue = 389.09"] ;
257 -> 258 ;
259 [label="X[0] <= -0.397\nsquared_error = 12012.16\nsamples = 2\nvalue = 255.2"] ;
257 -> 259 ;
260 [label="squared_error = 0.0\nsamples = 1\nvalue = 145.6"] ;
259 -> 260 ;
261 [label="squared_error = 0.0\nsamples = 1\nvalue = 364.8"] ;
259 -> 261 ;
262 [label="X[0] <= 0.127\nsquared_error = 4260.736\nsamples = 197\nvalue = 160.383"] ;
256 -> 262 ;
263 [label="X[1] <= 2.84\nsquared_error = 5329.648\nsamples = 91\nvalue = 173.044"] ;
262 -> 263 ;
264 [label="X[0] <= 0.103\nsquared_error = 3990.059\nsamples = 75\nvalue = 163.059"] ;
263 -> 264 ;
265 [label="X[0] <= -1.468\nsquared_error = 3720.546\nsamples = 74\nvalue = 160.982"] ;
264 -> 265 ;
266 [label="X[0] <= -11.069\nsquared_error = 5345.657\nsamples = 4\nvalue = 237.298"] ;
265 -> 266 ;
267 [label="squared_error = 0.0\nsamples = 1\nvalue = 115.54"] ;
266 -> 267 ;
268 [label="X[1] <= -0.26\nsquared_error = 538.703\nsamples = 3\nvalue = 277.883"] ;
266 -> 268 ;
269 [label="squared_error = 0.0\nsamples = 1\nvalue = 245.52"] ;
268 -> 269 ;
270 [label="X[1] <= 0.935\nsquared_error = 22.515\nsamples = 2\nvalue = 294.065"] ;
268 -> 270 ;
271 [label="squared_error = 0.0\nsamples = 1\nvalue = 298.81"] ;
270 -> 271 ;
272 [label="squared_error = 0.0\nsamples = 1\nvalue = 289.32"] ;
270 -> 272 ;
273 [label="X[0] <= -0.564\nsquared_error = 3275.861\nsamples = 70\nvalue = 156.621"] ;
265 -> 273 ;
274 [label="X[0] <= -0.737\nsquared_error = 105.733\nsamples = 19\nvalue = 135.877"] ;
273 -> 274 ;
275 [label="X[1] <= -1.385\nsquared_error = 35.582\nsamples = 9\nvalue = 127.281"] ;
274 -> 275 ;
276 [label="squared_error = 0.0\nsamples = 1\nvalue = 141.91"] ;
275 -> 276 ;
277 [label="X[1] <= -1.105\nsquared_error = 9.935\nsamples = 8\nvalue = 125.452"] ;
275 -> 277 ;
278 [label="X[1] <= -1.2\nsquared_error = 1.416\nsamples = 2\nvalue = 129.02"] ;
277 -> 278 ;
279 [label="squared_error = 0.0\nsamples = 1\nvalue = 130.21"] ;
278 -> 279 ;
280 [label="squared_error = -0.0\nsamples = 1\nvalue = 127.83"] ;
278 -> 280 ;
281 [label="X[0] <= -1.087\nsquared_error = 7.119\nsamples = 6\nvalue = 124.263"] ;
277 -> 281 ;
282 [label="squared_error = 0.0\nsamples = 1\nvalue = 127.79"] ;
281 -> 282 ;
283 [label="X[0] <= -0.98\nsquared_error = 5.557\nsamples = 5\nvalue = 123.558"] ;
281 -> 283 ;
284 [label="squared_error = 0.0\nsamples = 1\nvalue = 120.13"] ;
283 -> 284 ;
285 [label="X[1] <= -0.21\nsquared_error = 3.274\nsamples = 4\nvalue = 124.415"] ;
283 -> 285 ;
286 [label="X[1] <= -0.66\nsquared_error = 0.379\nsamples = 3\nvalue = 125.413"] ;
285 -> 286 ;
287 [label="X[0] <= -0.861\nsquared_error = 0.018\nsamples = 2\nvalue = 124.985"] ;
286 -> 287 ;
288 [label="squared_error = 0.0\nsamples = 1\nvalue = 125.12"] ;
287 -> 288 ;
289 [label="squared_error = -0.0\nsamples = 1\nvalue = 124.85"] ;
287 -> 289 ;
290 [label="squared_error = 0.0\nsamples = 1\nvalue = 126.27"] ;
286 -> 290 ;
291 [label="squared_error = -0.0\nsamples = 1\nvalue = 121.42"] ;
285 -> 291 ;
292 [label="X[0] <= -0.682\nsquared_error = 42.522\nsamples = 10\nvalue = 143.613"] ;
274 -> 292 ;
293 [label="X[0] <= -0.711\nsquared_error = 88.616\nsamples = 3\nvalue = 137.573"] ;
292 -> 293 ;
294 [label="X[0] <= -0.714\nsquared_error = 8.439\nsamples = 2\nvalue = 144.015"] ;
293 -> 294 ;
295 [label="squared_error = 0.0\nsamples = 1\nvalue = 141.11"] ;
294 -> 295 ;
296 [label="squared_error = 0.0\nsamples = 1\nvalue = 146.92"] ;
294 -> 296 ;
297 [label="squared_error = -0.0\nsamples = 1\nvalue = 124.69"] ;
293 -> 297 ;
298 [label="X[0] <= -0.629\nsquared_error = 0.435\nsamples = 7\nvalue = 146.201"] ;
292 -> 298 ;
299 [label="X[0] <= -0.649\nsquared_error = 0.06\nsamples = 2\nvalue = 145.615"] ;
298 -> 299 ;
300 [label="squared_error = 0.0\nsamples = 1\nvalue = 145.37"] ;
299 -> 300 ;
301 [label="squared_error = 0.0\nsamples = 1\nvalue = 145.86"] ;
299 -> 301 ;
302 [label="X[1] <= 0.58\nsquared_error = 0.392\nsamples = 5\nvalue = 146.436"] ;
298 -> 302 ;
303 [label="X[0] <= -0.582\nsquared_error = 0.051\nsamples = 3\nvalue = 145.957"] ;
302 -> 303 ;
304 [label="X[0] <= -0.602\nsquared_error = 0.001\nsamples = 2\nvalue = 146.115"] ;
303 -> 304 ;
305 [label="squared_error = 0.0\nsamples = 1\nvalue = 146.09"] ;
304 -> 305 ;
306 [label="squared_error = -0.0\nsamples = 1\nvalue = 146.14"] ;
304 -> 306 ;
307 [label="squared_error = 0.0\nsamples = 1\nvalue = 145.64"] ;
303 -> 307 ;
308 [label="X[1] <= 1.28\nsquared_error = 0.042\nsamples = 2\nvalue = 147.155"] ;
302 -> 308 ;
309 [label="squared_error = 0.0\nsamples = 1\nvalue = 147.36"] ;
308 -> 309 ;
310 [label="squared_error = 0.0\nsamples = 1\nvalue = 146.95"] ;
308 -> 310 ;
311 [label="X[0] <= -0.499\nsquared_error = 4236.849\nsamples = 51\nvalue = 164.349"] ;
273 -> 311 ;
312 [label="X[0] <= -0.523\nsquared_error = 8717.031\nsamples = 5\nvalue = 228.82"] ;
311 -> 312 ;
313 [label="X[0] <= -0.553\nsquared_error = 5176.482\nsamples = 4\nvalue = 194.998"] ;
312 -> 313 ;
314 [label="X[0] <= -0.554\nsquared_error = 5252.626\nsamples = 2\nvalue = 245.465"] ;
313 -> 314 ;
315 [label="squared_error = 0.0\nsamples = 1\nvalue = 172.99"] ;
314 -> 315 ;
316 [label="squared_error = 0.0\nsamples = 1\nvalue = 317.94"] ;
314 -> 316 ;
317 [label="X[0] <= -0.546\nsquared_error = 6.401\nsamples = 2\nvalue = 144.53"] ;
313 -> 317 ;
318 [label="squared_error = 0.0\nsamples = 1\nvalue = 147.06"] ;
317 -> 318 ;
319 [label="squared_error = -0.0\nsamples = 1\nvalue = 142.0"] ;
317 -> 319 ;
320 [label="squared_error = -0.0\nsamples = 1\nvalue = 364.11"] ;
312 -> 320 ;
321 [label="X[0] <= -0.099\nsquared_error = 3248.973\nsamples = 46\nvalue = 157.342"] ;
311 -> 321 ;
322 [label="X[0] <= -0.106\nsquared_error = 3987.794\nsamples = 36\nvalue = 162.862"] ;
321 -> 322 ;
323 [label="X[1] <= -0.02\nsquared_error = 2647.54\nsamples = 35\nvalue = 156.507"] ;
322 -> 323 ;
324 [label="X[1] <= -0.31\nsquared_error = 5824.693\nsamples = 14\nvalue = 170.541"] ;
323 -> 324 ;
325 [label="X[1] <= -0.945\nsquared_error = 2355.378\nsamples = 13\nvalue = 153.814"] ;
324 -> 325 ;
326 [label="X[1] <= -1.135\nsquared_error = 4805.044\nsamples = 5\nvalue = 180.024"] ;
325 -> 326 ;
327 [label="X[0] <= -0.356\nsquared_error = 35.547\nsamples = 4\nvalue = 145.468"] ;
326 -> 327 ;
328 [label="squared_error = 0.0\nsamples = 1\nvalue = 135.37"] ;
327 -> 328 ;
329 [label="X[0] <= -0.184\nsquared_error = 2.08\nsamples = 3\nvalue = 148.833"] ;
327 -> 329 ;
330 [label="X[1] <= -1.35\nsquared_error = 0.02\nsamples = 2\nvalue = 149.85"] ;
329 -> 330 ;
331 [label="squared_error = 0.0\nsamples = 1\nvalue = 149.71"] ;
330 -> 331 ;
332 [label="squared_error = -0.0\nsamples = 1\nvalue = 149.99"] ;
330 -> 332 ;
333 [label="squared_error = -0.0\nsamples = 1\nvalue = 146.8"] ;
329 -> 333 ;
334 [label="squared_error = 0.0\nsamples = 1\nvalue = 318.25"] ;
326 -> 334 ;
335 [label="X[1] <= -0.405\nsquared_error = 126.63\nsamples = 8\nvalue = 137.432"] ;
325 -> 335 ;
336 [label="X[0] <= -0.149\nsquared_error = 100.795\nsamples = 7\nvalue = 139.776"] ;
335 -> 336 ;
337 [label="X[0] <= -0.474\nsquared_error = 72.872\nsamples = 6\nvalue = 142.303"] ;
336 -> 337 ;
338 [label="squared_error = 0.0\nsamples = 1\nvalue = 128.98"] ;
337 -> 338 ;
339 [label="X[1] <= -0.605\nsquared_error = 44.844\nsamples = 5\nvalue = 144.968"] ;
337 -> 339 ;
340 [label="X[0] <= -0.339\nsquared_error = 65.125\nsamples = 2\nvalue = 140.12"] ;
339 -> 340 ;
341 [label="squared_error = 0.0\nsamples = 1\nvalue = 148.19"] ;
340 -> 341 ;
342 [label="squared_error = 0.0\nsamples = 1\nvalue = 132.05"] ;
340 -> 342 ;
343 [label="X[1] <= -0.43\nsquared_error = 5.208\nsamples = 3\nvalue = 148.2"] ;
339 -> 343 ;
344 [label="X[1] <= -0.505\nsquared_error = 0.036\nsamples = 2\nvalue = 149.81"] ;
343 -> 344 ;
345 [label="squared_error = 0.0\nsamples = 1\nvalue = 149.62"] ;
344 -> 345 ;
346 [label="squared_error = 0.0\nsamples = 1\nvalue = 150.0"] ;
344 -> 346 ;
347 [label="squared_error = -0.0\nsamples = 1\nvalue = 144.98"] ;
343 -> 347 ;
348 [label="squared_error = -0.0\nsamples = 1\nvalue = 124.61"] ;
336 -> 348 ;
349 [label="squared_error = 0.0\nsamples = 1\nvalue = 121.03"] ;
335 -> 349 ;
350 [label="squared_error = -0.0\nsamples = 1\nvalue = 388.0"] ;
324 -> 350 ;
351 [label="X[0] <= -0.329\nsquared_error = 310.583\nsamples = 21\nvalue = 147.15"] ;
323 -> 351 ;
352 [label="X[1] <= 2.1\nsquared_error = 71.241\nsamples = 6\nvalue = 134.492"] ;
351 -> 352 ;
353 [label="X[0] <= -0.421\nsquared_error = 73.11\nsamples = 5\nvalue = 135.928"] ;
352 -> 353 ;
354 [label="squared_error = 0.0\nsamples = 1\nvalue = 148.89"] ;
353 -> 354 ;
355 [label="X[1] <= 1.64\nsquared_error = 38.884\nsamples = 4\nvalue = 132.688"] ;
353 -> 355 ;
356 [label="X[1] <= 0.66\nsquared_error = 0.699\nsamples = 3\nvalue = 136.263"] ;
355 -> 356 ;
357 [label="squared_error = 0.0\nsamples = 1\nvalue = 137.39"] ;
356 -> 357 ;
358 [label="X[1] <= 1.235\nsquared_error = 0.096\nsamples = 2\nvalue = 135.7"] ;
356 -> 358 ;
359 [label="squared_error = 0.0\nsamples = 1\nvalue = 136.01"] ;
358 -> 359 ;
360 [label="squared_error = 0.0\nsamples = 1\nvalue = 135.39"] ;
358 -> 360 ;
361 [label="squared_error = -0.0\nsamples = 1\nvalue = 121.96"] ;
355 -> 361 ;
362 [label="squared_error = -0.0\nsamples = 1\nvalue = 127.31"] ;
352 -> 362 ;
363 [label="X[0] <= -0.319\nsquared_error = 316.582\nsamples = 15\nvalue = 152.214"] ;
351 -> 363 ;
364 [label="squared_error = 0.0\nsamples = 1\nvalue = 177.57"] ;
363 -> 364 ;
365 [label="X[0] <= -0.112\nsquared_error = 289.992\nsamples = 14\nvalue = 150.403"] ;
363 -> 365 ;
366 [label="X[0] <= -0.196\nsquared_error = 266.539\nsamples = 13\nvalue = 152.211"] ;
365 -> 366 ;
367 [label="X[1] <= 0.455\nsquared_error = 176.193\nsamples = 9\nvalue = 147.181"] ;
366 -> 367 ;
368 [label="X[0] <= -0.274\nsquared_error = 241.803\nsamples = 2\nvalue = 164.15"] ;
367 -> 368 ;
369 [label="squared_error = 0.0\nsamples = 1\nvalue = 148.6"] ;
368 -> 369 ;
370 [label="squared_error = 0.0\nsamples = 1\nvalue = 179.7"] ;
368 -> 370 ;
371 [label="X[0] <= -0.227\nsquared_error = 51.673\nsamples = 7\nvalue = 142.333"] ;
367 -> 371 ;
372 [label="X[1] <= 2.385\nsquared_error = 17.335\nsamples = 5\nvalue = 144.492"] ;
371 -> 372 ;
373 [label="X[0] <= -0.231\nsquared_error = 3.704\nsamples = 4\nvalue = 146.388"] ;
372 -> 373 ;
374 [label="X[1] <= 1.315\nsquared_error = 3.209\nsamples = 3\nvalue = 145.73"] ;
373 -> 374 ;
375 [label="X[0] <= -0.275\nsquared_error = 0.348\nsamples = 2\nvalue = 146.95"] ;
374 -> 375 ;
376 [label="squared_error = 0.0\nsamples = 1\nvalue = 147.54"] ;
375 -> 376 ;
377 [label="squared_error = 0.0\nsamples = 1\nvalue = 146.36"] ;
375 -> 377 ;
378 [label="squared_error = 0.0\nsamples = 1\nvalue = 143.29"] ;
374 -> 378 ;
379 [label="squared_error = 0.0\nsamples = 1\nvalue = 148.36"] ;
373 -> 379 ;
380 [label="squared_error = -0.0\nsamples = 1\nvalue = 136.91"] ;
372 -> 380 ;
381 [label="X[0] <= -0.223\nsquared_error = 96.727\nsamples = 2\nvalue = 136.935"] ;
371 -> 381 ;
382 [label="squared_error = 0.0\nsamples = 1\nvalue = 127.1"] ;
381 -> 382 ;
383 [label="squared_error = 0.0\nsamples = 1\nvalue = 146.77"] ;
381 -> 383 ;
384 [label="X[0] <= -0.157\nsquared_error = 284.829\nsamples = 4\nvalue = 163.527"] ;
366 -> 384 ;
385 [label="X[0] <= -0.167\nsquared_error = 3.629\nsamples = 2\nvalue = 180.105"] ;
384 -> 385 ;
386 [label="squared_error = 0.0\nsamples = 1\nvalue = 178.2"] ;
385 -> 386 ;
387 [label="squared_error = 0.0\nsamples = 1\nvalue = 182.01"] ;
385 -> 387 ;
388 [label="X[1] <= 0.22\nsquared_error = 16.403\nsamples = 2\nvalue = 146.95"] ;
384 -> 388 ;
389 [label="squared_error = 0.0\nsamples = 1\nvalue = 151.0"] ;
388 -> 389 ;
390 [label="squared_error = 0.0\nsamples = 1\nvalue = 142.9"] ;
388 -> 390 ;
391 [label="squared_error = 0.0\nsamples = 1\nvalue = 126.9"] ;
365 -> 391 ;
392 [label="squared_error = -0.0\nsamples = 1\nvalue = 385.31"] ;
322 -> 392 ;
393 [label="X[1] <= 2.165\nsquared_error = 84.449\nsamples = 10\nvalue = 137.466"] ;
321 -> 393 ;
394 [label="X[1] <= 0.56\nsquared_error = 54.26\nsamples = 8\nvalue = 134.284"] ;
393 -> 394 ;
395 [label="X[0] <= 0.056\nsquared_error = 20.248\nsamples = 4\nvalue = 140.538"] ;
394 -> 395 ;
396 [label="X[0] <= 0.007\nsquared_error = 5.483\nsamples = 3\nvalue = 142.857"] ;
395 -> 396 ;
397 [label="X[0] <= -0.042\nsquared_error = 0.09\nsamples = 2\nvalue = 141.21"] ;
396 -> 397 ;
398 [label="squared_error = 0.0\nsamples = 1\nvalue = 140.91"] ;
397 -> 398 ;
399 [label="squared_error = 0.0\nsamples = 1\nvalue = 141.51"] ;
397 -> 399 ;
400 [label="squared_error = 0.0\nsamples = 1\nvalue = 146.15"] ;
396 -> 400 ;
401 [label="squared_error = -0.0\nsamples = 1\nvalue = 133.58"] ;
395 -> 401 ;
402 [label="X[0] <= -0.049\nsquared_error = 10.053\nsamples = 4\nvalue = 128.03"] ;
394 -> 402 ;
403 [label="squared_error = 0.0\nsamples = 1\nvalue = 133.48"] ;
402 -> 403 ;
404 [label="X[1] <= 1.725\nsquared_error = 0.203\nsamples = 3\nvalue = 126.213"] ;
402 -> 404 ;
405 [label="X[1] <= 0.95\nsquared_error = 0.0\nsamples = 2\nvalue = 125.895"] ;
404 -> 405 ;
406 [label="squared_error = 0.0\nsamples = 1\nvalue = 125.89"] ;
405 -> 406 ;
407 [label="squared_error = -0.0\nsamples = 1\nvalue = 125.9"] ;
405 -> 407 ;
408 [label="squared_error = -0.0\nsamples = 1\nvalue = 126.85"] ;
404 -> 408 ;
409 [label="X[0] <= -0.004\nsquared_error = 2.673\nsamples = 2\nvalue = 150.195"] ;
393 -> 409 ;
410 [label="squared_error = 0.0\nsamples = 1\nvalue = 148.56"] ;
409 -> 410 ;
411 [label="squared_error = 0.0\nsamples = 1\nvalue = 151.83"] ;
409 -> 411 ;
412 [label="squared_error = 0.0\nsamples = 1\nvalue = 316.73"] ;
264 -> 412 ;
413 [label="X[1] <= 2.935\nsquared_error = 8950.838\nsamples = 16\nvalue = 219.849"] ;
263 -> 413 ;
414 [label="squared_error = 0.0\nsamples = 1\nvalue = 361.78"] ;
413 -> 414 ;
415 [label="X[1] <= 4.18\nsquared_error = 8115.077\nsamples = 15\nvalue = 210.387"] ;
413 -> 415 ;
416 [label="X[1] <= 3.79\nsquared_error = 9171.463\nsamples = 9\nvalue = 235.028"] ;
415 -> 416 ;
417 [label="X[0] <= -0.495\nsquared_error = 5096.549\nsamples = 5\nvalue = 179.782"] ;
416 -> 417 ;
418 [label="squared_error = 0.0\nsamples = 1\nvalue = 321.85"] ;
417 -> 418 ;
419 [label="X[0] <= -0.384\nsquared_error = 63.4\nsamples = 4\nvalue = 144.265"] ;
417 -> 419 ;
420 [label="squared_error = 0.0\nsamples = 1\nvalue = 132.03"] ;
419 -> 420 ;
421 [label="X[1] <= 3.54\nsquared_error = 18.002\nsamples = 3\nvalue = 148.343"] ;
419 -> 421 ;
422 [label="X[1] <= 3.185\nsquared_error = 4.04\nsamples = 2\nvalue = 151.11"] ;
421 -> 422 ;
423 [label="squared_error = 0.0\nsamples = 1\nvalue = 149.1"] ;
422 -> 423 ;
424 [label="squared_error = -0.0\nsamples = 1\nvalue = 153.12"] ;
422 -> 424 ;
425 [label="squared_error = 0.0\nsamples = 1\nvalue = 142.81"] ;
421 -> 425 ;
426 [label="X[0] <= -0.353\nsquared_error = 5681.085\nsamples = 4\nvalue = 304.085"] ;
416 -> 426 ;
427 [label="X[1] <= 4.045\nsquared_error = 5331.92\nsamples = 2\nvalue = 249.3"] ;
426 -> 427 ;
428 [label="squared_error = 0.0\nsamples = 1\nvalue = 176.28"] ;
427 -> 428 ;
429 [label="squared_error = -0.0\nsamples = 1\nvalue = 322.32"] ;
427 -> 429 ;
430 [label="X[0] <= -0.134\nsquared_error = 27.458\nsamples = 2\nvalue = 358.87"] ;
426 -> 430 ;
431 [label="squared_error = 0.0\nsamples = 1\nvalue = 364.11"] ;
430 -> 431 ;
432 [label="squared_error = 0.0\nsamples = 1\nvalue = 353.63"] ;
430 -> 432 ;
433 [label="X[1] <= 4.885\nsquared_error = 4253.68\nsamples = 6\nvalue = 173.427"] ;
415 -> 433 ;
434 [label="X[0] <= -0.161\nsquared_error = 65.257\nsamples = 3\nvalue = 139.28"] ;
433 -> 434 ;
435 [label="X[0] <= -0.417\nsquared_error = 8.614\nsamples = 2\nvalue = 133.825"] ;
434 -> 435 ;
436 [label="squared_error = 0.0\nsamples = 1\nvalue = 130.89"] ;
435 -> 436 ;
437 [label="squared_error = -0.0\nsamples = 1\nvalue = 136.76"] ;
435 -> 437 ;
438 [label="squared_error = 0.0\nsamples = 1\nvalue = 150.19"] ;
434 -> 438 ;
439 [label="X[0] <= -0.088\nsquared_error = 6110.113\nsamples = 3\nvalue = 207.573"] ;
433 -> 439 ;
440 [label="squared_error = 0.0\nsamples = 1\nvalue = 318.11"] ;
439 -> 440 ;
441 [label="X[1] <= 5.3\nsquared_error = 1.404\nsamples = 2\nvalue = 152.305"] ;
439 -> 441 ;
442 [label="squared_error = 0.0\nsamples = 1\nvalue = 151.12"] ;
441 -> 442 ;
443 [label="squared_error = 0.0\nsamples = 1\nvalue = 153.49"] ;
441 -> 443 ;
444 [label="X[1] <= 3.39\nsquared_error = 3087.336\nsamples = 106\nvalue = 149.514"] ;
262 -> 444 ;
445 [label="X[1] <= 3.32\nsquared_error = 4553.954\nsamples = 68\nvalue = 156.28"] ;
444 -> 445 ;
446 [label="X[0] <= 0.985\nsquared_error = 3877.636\nsamples = 66\nvalue = 152.67"] ;
445 -> 446 ;
447 [label="X[0] <= 0.722\nsquared_error = 715.965\nsamples = 52\nvalue = 141.451"] ;
446 -> 447 ;
448 [label="X[0] <= 0.332\nsquared_error = 137.543\nsamples = 36\nvalue = 136.6"] ;
447 -> 448 ;
449 [label="X[0] <= 0.249\nsquared_error = 110.167\nsamples = 13\nvalue = 131.184"] ;
448 -> 449 ;
450 [label="X[1] <= 1.97\nsquared_error = 87.949\nsamples = 5\nvalue = 141.228"] ;
449 -> 450 ;
451 [label="X[1] <= 1.375\nsquared_error = 44.342\nsamples = 4\nvalue = 144.85"] ;
450 -> 451 ;
452 [label="X[1] <= 1.03\nsquared_error = 45.235\nsamples = 3\nvalue = 142.987"] ;
451 -> 452 ;
453 [label="X[1] <= 0.63\nsquared_error = 12.426\nsamples = 2\nvalue = 147.285"] ;
452 -> 453 ;
454 [label="squared_error = 0.0\nsamples = 1\nvalue = 143.76"] ;
453 -> 454 ;
455 [label="squared_error = 0.0\nsamples = 1\nvalue = 150.81"] ;
453 -> 455 ;
456 [label="squared_error = 0.0\nsamples = 1\nvalue = 134.39"] ;
452 -> 456 ;
457 [label="squared_error = 0.0\nsamples = 1\nvalue = 150.44"] ;
451 -> 457 ;
458 [label="squared_error = -0.0\nsamples = 1\nvalue = 126.74"] ;
450 -> 458 ;
459 [label="X[1] <= -0.6\nsquared_error = 21.592\nsamples = 8\nvalue = 124.906"] ;
449 -> 459 ;
460 [label="squared_error = 0.0\nsamples = 1\nvalue = 119.99"] ;
459 -> 460 ;
461 [label="X[1] <= -0.05\nsquared_error = 20.73\nsamples = 7\nvalue = 125.609"] ;
459 -> 461 ;
462 [label="squared_error = 0.0\nsamples = 1\nvalue = 134.72"] ;
461 -> 462 ;
463 [label="X[1] <= 1.34\nsquared_error = 8.043\nsamples = 6\nvalue = 124.09"] ;
461 -> 463 ;
464 [label="X[1] <= 0.64\nsquared_error = 0.096\nsamples = 2\nvalue = 120.9"] ;
463 -> 464 ;
465 [label="squared_error = 0.0\nsamples = 1\nvalue = 120.59"] ;
464 -> 465 ;
466 [label="squared_error = -0.0\nsamples = 1\nvalue = 121.21"] ;
464 -> 466 ;
467 [label="X[0] <= 0.324\nsquared_error = 4.384\nsamples = 4\nvalue = 125.685"] ;
463 -> 467 ;
468 [label="X[0] <= 0.295\nsquared_error = 4.614\nsamples = 3\nvalue = 125.13"] ;
467 -> 468 ;
469 [label="X[0] <= 0.268\nsquared_error = 0.26\nsamples = 2\nvalue = 126.62"] ;
468 -> 469 ;
470 [label="squared_error = 0.0\nsamples = 1\nvalue = 126.11"] ;
469 -> 470 ;
471 [label="squared_error = -0.0\nsamples = 1\nvalue = 127.13"] ;
469 -> 471 ;
472 [label="squared_error = -0.0\nsamples = 1\nvalue = 122.15"] ;
468 -> 472 ;
473 [label="squared_error = -0.0\nsamples = 1\nvalue = 127.35"] ;
467 -> 473 ;
474 [label="X[0] <= 0.416\nsquared_error = 127.064\nsamples = 23\nvalue = 139.661"] ;
448 -> 474 ;
475 [label="X[1] <= 0.868\nsquared_error = 49.878\nsamples = 5\nvalue = 147.094"] ;
474 -> 475 ;
476 [label="X[1] <= -0.678\nsquared_error = 69.222\nsamples = 2\nvalue = 142.64"] ;
475 -> 476 ;
477 [label="squared_error = 0.0\nsamples = 1\nvalue = 150.96"] ;
476 -> 477 ;
478 [label="squared_error = 0.0\nsamples = 1\nvalue = 134.32"] ;
476 -> 478 ;
479 [label="X[1] <= 1.75\nsquared_error = 14.939\nsamples = 3\nvalue = 150.063"] ;
475 -> 479 ;
480 [label="X[0] <= 0.344\nsquared_error = 1.946\nsamples = 2\nvalue = 152.675"] ;
479 -> 480 ;
481 [label="squared_error = 0.0\nsamples = 1\nvalue = 154.07"] ;
480 -> 481 ;
482 [label="squared_error = -0.0\nsamples = 1\nvalue = 151.28"] ;
480 -> 482 ;
483 [label="squared_error = -0.0\nsamples = 1\nvalue = 144.84"] ;
479 -> 483 ;
484 [label="X[0] <= 0.452\nsquared_error = 128.896\nsamples = 18\nvalue = 137.597"] ;
474 -> 484 ;
485 [label="X[0] <= 0.439\nsquared_error = 1.604\nsamples = 3\nvalue = 122.307"] ;
484 -> 485 ;
486 [label="X[0] <= 0.431\nsquared_error = 0.038\nsamples = 2\nvalue = 123.195"] ;
485 -> 486 ;
487 [label="squared_error = 0.0\nsamples = 1\nvalue = 123.39"] ;
486 -> 487 ;
488 [label="squared_error = 0.0\nsamples = 1\nvalue = 123.0"] ;
486 -> 488 ;
489 [label="squared_error = 0.0\nsamples = 1\nvalue = 120.53"] ;
485 -> 489 ;
490 [label="X[1] <= 1.37\nsquared_error = 98.246\nsamples = 15\nvalue = 140.655"] ;
484 -> 490 ;
491 [label="X[1] <= 0.005\nsquared_error = 27.776\nsamples = 4\nvalue = 151.402"] ;
490 -> 491 ;
492 [label="squared_error = 0.0\nsamples = 1\nvalue = 160.24"] ;
491 -> 492 ;
493 [label="X[0] <= 0.597\nsquared_error = 2.323\nsamples = 3\nvalue = 148.457"] ;
491 -> 493 ;
494 [label="X[0] <= 0.505\nsquared_error = 0.281\nsamples = 2\nvalue = 149.49"] ;
493 -> 494 ;
495 [label="squared_error = 0.0\nsamples = 1\nvalue = 150.02"] ;
494 -> 495 ;
496 [label="squared_error = 0.0\nsamples = 1\nvalue = 148.96"] ;
494 -> 496 ;
497 [label="squared_error = 0.0\nsamples = 1\nvalue = 146.39"] ;
493 -> 497 ;
498 [label="X[0] <= 0.55\nsquared_error = 66.59\nsamples = 11\nvalue = 136.746"] ;
490 -> 498 ;
499 [label="X[1] <= 2.96\nsquared_error = 3.276\nsamples = 2\nvalue = 153.3"] ;
498 -> 499 ;
500 [label="squared_error = 0.0\nsamples = 1\nvalue = 151.49"] ;
499 -> 500 ;
501 [label="squared_error = -0.0\nsamples = 1\nvalue = 155.11"] ;
499 -> 501 ;
502 [label="X[1] <= 3.185\nsquared_error = 6.234\nsamples = 9\nvalue = 133.068"] ;
498 -> 502 ;
503 [label="X[1] <= 2.775\nsquared_error = 4.883\nsamples = 8\nvalue = 132.581"] ;
502 -> 503 ;
504 [label="X[0] <= 0.688\nsquared_error = 1.755\nsamples = 5\nvalue = 134.08"] ;
503 -> 504 ;
505 [label="X[0] <= 0.644\nsquared_error = 0.611\nsamples = 4\nvalue = 133.518"] ;
504 -> 505 ;
506 [label="squared_error = 0.0\nsamples = 1\nvalue = 134.78"] ;
505 -> 506 ;
507 [label="X[0] <= 0.68\nsquared_error = 0.107\nsamples = 3\nvalue = 133.097"] ;
505 -> 507 ;
508 [label="X[0] <= 0.66\nsquared_error = 0.044\nsamples = 2\nvalue = 132.9"] ;
507 -> 508 ;
509 [label="squared_error = 0.0\nsamples = 1\nvalue = 133.11"] ;
508 -> 509 ;
510 [label="squared_error = 0.0\nsamples = 1\nvalue = 132.69"] ;
508 -> 510 ;
511 [label="squared_error = -0.0\nsamples = 1\nvalue = 133.49"] ;
507 -> 511 ;
512 [label="squared_error = 0.0\nsamples = 1\nvalue = 136.33"] ;
504 -> 512 ;
513 [label="X[0] <= 0.654\nsquared_error = 0.114\nsamples = 3\nvalue = 130.083"] ;
503 -> 513 ;
514 [label="squared_error = 0.0\nsamples = 1\nvalue = 129.64"] ;
513 -> 514 ;
515 [label="X[0] <= 0.697\nsquared_error = 0.024\nsamples = 2\nvalue = 130.305"] ;
513 -> 515 ;
516 [label="squared_error = 0.0\nsamples = 1\nvalue = 130.15"] ;
515 -> 516 ;
517 [label="squared_error = 0.0\nsamples = 1\nvalue = 130.46"] ;
515 -> 517 ;
518 [label="squared_error = -0.0\nsamples = 1\nvalue = 136.96"] ;
502 -> 518 ;
519 [label="X[0] <= 0.734\nsquared_error = 1845.312\nsamples = 16\nvalue = 152.367"] ;
447 -> 519 ;
520 [label="squared_error = 0.0\nsamples = 1\nvalue = 313.14"] ;
519 -> 520 ;
521 [label="X[0] <= 0.78\nsquared_error = 130.253\nsamples = 15\nvalue = 141.649"] ;
519 -> 521 ;
522 [label="X[0] <= 0.764\nsquared_error = 131.291\nsamples = 6\nvalue = 147.488"] ;
521 -> 522 ;
523 [label="X[1] <= 1.365\nsquared_error = 68.082\nsamples = 4\nvalue = 141.09"] ;
522 -> 523 ;
524 [label="X[0] <= 0.752\nsquared_error = 0.226\nsamples = 2\nvalue = 149.325"] ;
523 -> 524 ;
525 [label="squared_error = 0.0\nsamples = 1\nvalue = 149.8"] ;
524 -> 525 ;
526 [label="squared_error = 0.0\nsamples = 1\nvalue = 148.85"] ;
524 -> 526 ;
527 [label="X[1] <= 1.72\nsquared_error = 0.308\nsamples = 2\nvalue = 132.855"] ;
523 -> 527 ;
528 [label="squared_error = 0.0\nsamples = 1\nvalue = 133.41"] ;
527 -> 528 ;
529 [label="squared_error = -0.0\nsamples = 1\nvalue = 132.3"] ;
527 -> 529 ;
530 [label="X[0] <= 0.766\nsquared_error = 12.076\nsamples = 2\nvalue = 160.285"] ;
522 -> 530 ;
531 [label="squared_error = 0.0\nsamples = 1\nvalue = 156.81"] ;
530 -> 531 ;
532 [label="squared_error = -0.0\nsamples = 1\nvalue = 163.76"] ;
530 -> 532 ;
533 [label="X[1] <= 0.19\nsquared_error = 91.67\nsamples = 9\nvalue = 137.756"] ;
521 -> 533 ;
534 [label="X[1] <= -0.561\nsquared_error = 28.676\nsamples = 2\nvalue = 127.765"] ;
533 -> 534 ;
535 [label="squared_error = 0.0\nsamples = 1\nvalue = 133.12"] ;
534 -> 535 ;
536 [label="squared_error = 0.0\nsamples = 1\nvalue = 122.41"] ;
534 -> 536 ;
537 [label="X[0] <= 0.941\nsquared_error = 73.003\nsamples = 7\nvalue = 140.61"] ;
533 -> 537 ;
538 [label="X[1] <= 1.965\nsquared_error = 55.269\nsamples = 5\nvalue = 144.268"] ;
537 -> 538 ;
539 [label="X[1] <= 1.2\nsquared_error = 44.921\nsamples = 3\nvalue = 140.043"] ;
538 -> 539 ;
540 [label="X[1] <= 0.39\nsquared_error = 37.393\nsamples = 2\nvalue = 143.205"] ;
539 -> 540 ;
541 [label="squared_error = 0.0\nsamples = 1\nvalue = 137.09"] ;
540 -> 541 ;
542 [label="squared_error = 0.0\nsamples = 1\nvalue = 149.32"] ;
540 -> 542 ;
543 [label="squared_error = -0.0\nsamples = 1\nvalue = 133.72"] ;
539 -> 543 ;
544 [label="X[1] <= 2.59\nsquared_error = 3.861\nsamples = 2\nvalue = 150.605"] ;
538 -> 544 ;
545 [label="squared_error = 0.0\nsamples = 1\nvalue = 148.64"] ;
544 -> 545 ;
546 [label="squared_error = -0.0\nsamples = 1\nvalue = 152.57"] ;
544 -> 546 ;
547 [label="X[0] <= 0.958\nsquared_error = 0.255\nsamples = 2\nvalue = 131.465"] ;
537 -> 547 ;
548 [label="squared_error = 0.0\nsamples = 1\nvalue = 131.97"] ;
547 -> 548 ;
549 [label="squared_error = 0.0\nsamples = 1\nvalue = 130.96"] ;
547 -> 549 ;
550 [label="X[1] <= 1.73\nsquared_error = 13417.271\nsamples = 14\nvalue = 194.338"] ;
446 -> 550 ;
551 [label="X[0] <= 1.049\nsquared_error = 7309.937\nsamples = 12\nvalue = 170.598"] ;
550 -> 551 ;
552 [label="X[1] <= 0.125\nsquared_error = 10026.893\nsamples = 3\nvalue = 263.263"] ;
551 -> 552 ;
553 [label="X[1] <= -0.65\nsquared_error = 335.439\nsamples = 2\nvalue = 333.275"] ;
552 -> 553 ;
554 [label="squared_error = 0.0\nsamples = 1\nvalue = 351.59"] ;
553 -> 554 ;
555 [label="squared_error = 0.0\nsamples = 1\nvalue = 314.96"] ;
553 -> 555 ;
556 [label="squared_error = 0.0\nsamples = 1\nvalue = 123.24"] ;
552 -> 556 ;
557 [label="X[1] <= 0.175\nsquared_error = 2587.894\nsamples = 9\nvalue = 139.709"] ;
551 -> 557 ;
558 [label="X[1] <= -0.2\nsquared_error = 5013.504\nsamples = 4\nvalue = 160.355"] ;
557 -> 558 ;
559 [label="X[0] <= 1.634\nsquared_error = 2.699\nsamples = 3\nvalue = 119.483"] ;
558 -> 559 ;
560 [label="squared_error = 0.0\nsamples = 1\nvalue = 121.78"] ;
559 -> 560 ;
561 [label="X[0] <= 2.249\nsquared_error = 0.093\nsamples = 2\nvalue = 118.335"] ;
559 -> 561 ;
562 [label="squared_error = 0.0\nsamples = 1\nvalue = 118.64"] ;
561 -> 562 ;
563 [label="squared_error = -0.0\nsamples = 1\nvalue = 118.03"] ;
561 -> 563 ;
564 [label="squared_error = -0.0\nsamples = 1\nvalue = 282.97"] ;
558 -> 564 ;
565 [label="X[1] <= 0.82\nsquared_error = 33.621\nsamples = 5\nvalue = 123.193"] ;
557 -> 565 ;
566 [label="X[0] <= 3.091\nsquared_error = 0.001\nsamples = 2\nvalue = 119.235"] ;
565 -> 566 ;
567 [label="squared_error = 0.0\nsamples = 1\nvalue = 119.26"] ;
566 -> 567 ;
568 [label="squared_error = 0.0\nsamples = 1\nvalue = 119.21"] ;
566 -> 568 ;
569 [label="X[1] <= 1.365\nsquared_error = 38.629\nsamples = 3\nvalue = 125.832"] ;
565 -> 569 ;
570 [label="squared_error = 0.0\nsamples = 1\nvalue = 134.065"] ;
569 -> 570 ;
571 [label="X[0] <= 1.226\nsquared_error = 7.102\nsamples = 2\nvalue = 121.715"] ;
569 -> 571 ;
572 [label="squared_error = 0.0\nsamples = 1\nvalue = 119.05"] ;
571 -> 572 ;
573 [label="squared_error = -0.0\nsamples = 1\nvalue = 124.38"] ;
571 -> 573 ;
574 [label="X[0] <= 1.315\nsquared_error = 26390.003\nsamples = 2\nvalue = 336.78"] ;
550 -> 574 ;
575 [label="squared_error = 0.0\nsamples = 1\nvalue = 174.33"] ;
574 -> 575 ;
576 [label="squared_error = -0.0\nsamples = 1\nvalue = 499.23"] ;
574 -> 576 ;
577 [label="X[0] <= 0.621\nsquared_error = 12245.636\nsamples = 2\nvalue = 275.43"] ;
445 -> 577 ;
578 [label="squared_error = 0.0\nsamples = 1\nvalue = 386.09"] ;
577 -> 578 ;
579 [label="squared_error = 0.0\nsamples = 1\nvalue = 164.77"] ;
577 -> 579 ;
580 [label="X[0] <= 1.407\nsquared_error = 234.314\nsamples = 38\nvalue = 137.405"] ;
444 -> 580 ;
581 [label="X[0] <= 0.562\nsquared_error = 199.023\nsamples = 30\nvalue = 141.798"] ;
580 -> 581 ;
582 [label="X[1] <= 4.758\nsquared_error = 147.118\nsamples = 7\nvalue = 151.826"] ;
581 -> 582 ;
583 [label="X[1] <= 4.318\nsquared_error = 143.137\nsamples = 4\nvalue = 145.33"] ;
582 -> 583 ;
584 [label="X[0] <= 0.535\nsquared_error = 17.313\nsamples = 3\nvalue = 151.917"] ;
583 -> 584 ;
585 [label="X[0] <= 0.34\nsquared_error = 4.368\nsamples = 2\nvalue = 154.6"] ;
584 -> 585 ;
586 [label="squared_error = 0.0\nsamples = 1\nvalue = 152.51"] ;
585 -> 586 ;
587 [label="squared_error = -0.0\nsamples = 1\nvalue = 156.69"] ;
585 -> 587 ;
588 [label="squared_error = 0.0\nsamples = 1\nvalue = 146.55"] ;
584 -> 588 ;
589 [label="squared_error = -0.0\nsamples = 1\nvalue = 125.57"] ;
583 -> 589 ;
590 [label="X[0] <= 0.418\nsquared_error = 21.156\nsamples = 3\nvalue = 160.487"] ;
582 -> 590 ;
591 [label="squared_error = 0.0\nsamples = 1\nvalue = 154.3"] ;
590 -> 591 ;
592 [label="X[1] <= 5.055\nsquared_error = 3.028\nsamples = 2\nvalue = 163.58"] ;
590 -> 592 ;
593 [label="squared_error = 0.0\nsamples = 1\nvalue = 161.84"] ;
592 -> 593 ;
594 [label="squared_error = 0.0\nsamples = 1\nvalue = 165.32"] ;
592 -> 594 ;
595 [label="X[0] <= 0.859\nsquared_error = 174.901\nsamples = 23\nvalue = 138.746"] ;
581 -> 595 ;
596 [label="X[1] <= 4.46\nsquared_error = 17.795\nsamples = 8\nvalue = 130.511"] ;
595 -> 596 ;
597 [label="X[0] <= 0.765\nsquared_error = 2.627\nsamples = 3\nvalue = 134.983"] ;
596 -> 597 ;
598 [label="squared_error = 0.0\nsamples = 1\nvalue = 137.27"] ;
597 -> 598 ;
599 [label="X[1] <= 3.945\nsquared_error = 0.02\nsamples = 2\nvalue = 133.84"] ;
597 -> 599 ;
600 [label="squared_error = 0.0\nsamples = 1\nvalue = 133.7"] ;
599 -> 600 ;
601 [label="squared_error = 0.0\nsamples = 1\nvalue = 133.98"] ;
599 -> 601 ;
602 [label="X[1] <= 5.25\nsquared_error = 7.696\nsamples = 5\nvalue = 127.828"] ;
596 -> 602 ;
603 [label="X[0] <= 0.594\nsquared_error = 4.714\nsamples = 4\nvalue = 126.837"] ;
602 -> 603 ;
604 [label="squared_error = 0.0\nsamples = 1\nvalue = 130.48"] ;
603 -> 604 ;
605 [label="X[0] <= 0.656\nsquared_error = 0.389\nsamples = 3\nvalue = 125.623"] ;
603 -> 605 ;
606 [label="squared_error = 0.0\nsamples = 1\nvalue = 124.76"] ;
605 -> 606 ;
607 [label="X[0] <= 0.765\nsquared_error = 0.024\nsamples = 2\nvalue = 126.055"] ;
605 -> 607 ;
608 [label="squared_error = 0.0\nsamples = 1\nvalue = 125.9"] ;
607 -> 608 ;
609 [label="squared_error = -0.0\nsamples = 1\nvalue = 126.21"] ;
607 -> 609 ;
610 [label="squared_error = 0.0\nsamples = 1\nvalue = 131.79"] ;
602 -> 610 ;
611 [label="X[1] <= 4.18\nsquared_error = 203.239\nsamples = 15\nvalue = 143.138"] ;
595 -> 611 ;
612 [label="X[0] <= 0.883\nsquared_error = 50.627\nsamples = 7\nvalue = 136.5"] ;
611 -> 612 ;
613 [label="squared_error = 0.0\nsamples = 1\nvalue = 145.64"] ;
612 -> 613 ;
614 [label="X[0] <= 1.008\nsquared_error = 42.821\nsamples = 6\nvalue = 134.977"] ;
612 -> 614 ;
615 [label="X[0] <= 0.944\nsquared_error = 4.0\nsamples = 2\nvalue = 129.88"] ;
614 -> 615 ;
616 [label="squared_error = 0.0\nsamples = 1\nvalue = 127.88"] ;
615 -> 616 ;
617 [label="squared_error = 0.0\nsamples = 1\nvalue = 131.88"] ;
615 -> 617 ;
618 [label="X[0] <= 1.078\nsquared_error = 42.75\nsamples = 4\nvalue = 137.525"] ;
614 -> 618 ;
619 [label="squared_error = 0.0\nsamples = 1\nvalue = 148.69"] ;
618 -> 619 ;
620 [label="X[0] <= 1.385\nsquared_error = 1.596\nsamples = 3\nvalue = 133.803"] ;
618 -> 620 ;
621 [label="X[0] <= 1.254\nsquared_error = 0.036\nsamples = 2\nvalue = 134.69"] ;
620 -> 621 ;
622 [label="squared_error = 0.0\nsamples = 1\nvalue = 134.88"] ;
621 -> 622 ;
623 [label="squared_error = 0.0\nsamples = 1\nvalue = 134.5"] ;
621 -> 623 ;
624 [label="squared_error = 0.0\nsamples = 1\nvalue = 132.03"] ;
620 -> 624 ;
625 [label="X[1] <= 4.232\nsquared_error = 264.49\nsamples = 8\nvalue = 148.946"] ;
611 -> 625 ;
626 [label="squared_error = 0.0\nsamples = 1\nvalue = 179.3"] ;
625 -> 626 ;
627 [label="X[0] <= 0.884\nsquared_error = 151.843\nsamples = 7\nvalue = 144.609"] ;
625 -> 627 ;
628 [label="squared_error = 0.0\nsamples = 1\nvalue = 165.3"] ;
627 -> 628 ;
629 [label="X[0] <= 0.901\nsquared_error = 93.908\nsamples = 6\nvalue = 141.161"] ;
627 -> 629 ;
630 [label="squared_error = 0.0\nsamples = 1\nvalue = 126.655"] ;
629 -> 630 ;
631 [label="X[1] <= 5.35\nsquared_error = 62.189\nsamples = 5\nvalue = 144.062"] ;
629 -> 631 ;
632 [label="X[1] <= 4.56\nsquared_error = 4.212\nsamples = 3\nvalue = 147.377"] ;
631 -> 632 ;
633 [label="squared_error = 0.0\nsamples = 1\nvalue = 144.5"] ;
632 -> 633 ;
634 [label="X[0] <= 0.938\nsquared_error = 0.112\nsamples = 2\nvalue = 148.815"] ;
632 -> 634 ;
635 [label="squared_error = 0.0\nsamples = 1\nvalue = 148.48"] ;
634 -> 635 ;
636 [label="squared_error = 0.0\nsamples = 1\nvalue = 149.15"] ;
634 -> 636 ;
637 [label="X[1] <= 5.59\nsquared_error = 107.952\nsamples = 2\nvalue = 139.09"] ;
631 -> 637 ;
638 [label="squared_error = 0.0\nsamples = 1\nvalue = 128.7"] ;
637 -> 638 ;
639 [label="squared_error = 0.0\nsamples = 1\nvalue = 149.48"] ;
637 -> 639 ;
640 [label="X[0] <= 2.071\nsquared_error = 22.987\nsamples = 8\nvalue = 120.934"] ;
580 -> 640 ;
641 [label="X[0] <= 1.45\nsquared_error = 15.943\nsamples = 3\nvalue = 125.79"] ;
640 -> 641 ;
642 [label="X[0] <= 1.423\nsquared_error = 0.562\nsamples = 2\nvalue = 123.0"] ;
641 -> 642 ;
643 [label="squared_error = 0.0\nsamples = 1\nvalue = 123.75"] ;
642 -> 643 ;
644 [label="squared_error = 0.0\nsamples = 1\nvalue = 122.25"] ;
642 -> 644 ;
645 [label="squared_error = 0.0\nsamples = 1\nvalue = 131.37"] ;
641 -> 645 ;
646 [label="X[0] <= 3.275\nsquared_error = 4.573\nsamples = 5\nvalue = 118.02"] ;
640 -> 646 ;
647 [label="X[1] <= 3.7\nsquared_error = 0.166\nsamples = 3\nvalue = 119.727"] ;
646 -> 647 ;
648 [label="squared_error = 0.0\nsamples = 1\nvalue = 119.39"] ;
647 -> 648 ;
649 [label="X[0] <= 3.085\nsquared_error = 0.164\nsamples = 2\nvalue = 119.895"] ;
647 -> 649 ;
650 [label="squared_error = 0.0\nsamples = 1\nvalue = 120.3"] ;
649 -> 650 ;
651 [label="squared_error = 0.0\nsamples = 1\nvalue = 119.49"] ;
649 -> 651 ;
652 [label="X[1] <= 4.64\nsquared_error = 0.26\nsamples = 2\nvalue = 115.46"] ;
646 -> 652 ;
653 [label="squared_error = 0.0\nsamples = 1\nvalue = 114.95"] ;
652 -> 653 ;
654 [label="squared_error = -0.0\nsamples = 1\nvalue = 115.97"] ;
652 -> 654 ;
655 [label="X[0] <= 3.366\nsquared_error = 18702.375\nsamples = 9\nvalue = 221.444"] ;
69 -> 655 ;
656 [label="squared_error = 0.0\nsamples = 1\nvalue = 460.04"] ;
655 -> 656 ;
657 [label="X[1] <= -3.085\nsquared_error = 13034.694\nsamples = 8\nvalue = 191.62"] ;
655 -> 657 ;
658 [label="X[0] <= 3.443\nsquared_error = 0.64\nsamples = 3\nvalue = 108.25"] ;
657 -> 658 ;
659 [label="squared_error = 0.0\nsamples = 1\nvalue = 107.12"] ;
658 -> 659 ;
660 [label="X[1] <= -6.23\nsquared_error = 0.002\nsamples = 2\nvalue = 108.815"] ;
658 -> 660 ;
661 [label="squared_error = 0.0\nsamples = 1\nvalue = 108.77"] ;
660 -> 661 ;
662 [label="squared_error = 0.0\nsamples = 1\nvalue = 108.86"] ;
660 -> 662 ;
663 [label="X[1] <= -0.795\nsquared_error = 14182.592\nsamples = 5\nvalue = 241.642"] ;
657 -> 663 ;
664 [label="squared_error = 0.0\nsamples = 1\nvalue = 437.5"] ;
663 -> 664 ;
665 [label="X[0] <= 4.631\nsquared_error = 5740.629\nsamples = 4\nvalue = 192.678"] ;
663 -> 665 ;
666 [label="X[1] <= 4.425\nsquared_error = 4499.291\nsamples = 3\nvalue = 164.593"] ;
665 -> 666 ;
667 [label="X[1] <= 1.64\nsquared_error = 3.441\nsamples = 2\nvalue = 117.175"] ;
666 -> 667 ;
668 [label="squared_error = 0.0\nsamples = 1\nvalue = 115.32"] ;
667 -> 668 ;
669 [label="squared_error = 0.0\nsamples = 1\nvalue = 119.03"] ;
667 -> 669 ;
670 [label="squared_error = -0.0\nsamples = 1\nvalue = 259.43"] ;
666 -> 670 ;
671 [label="squared_error = 0.0\nsamples = 1\nvalue = 276.93"] ;
665 -> 671 ;
672 [label="X[0] <= 5.456\nsquared_error = 7.214\nsamples = 20\nvalue = 115.149"] ;
68 -> 672 ;
673 [label="X[0] <= 5.126\nsquared_error = 2.22\nsamples = 2\nvalue = 109.71"] ;
672 -> 673 ;
674 [label="squared_error = 0.0\nsamples = 1\nvalue = 111.2"] ;
673 -> 674 ;
675 [label="squared_error = -0.0\nsamples = 1\nvalue = 108.22"] ;
673 -> 675 ;
676 [label="X[1] <= 5.59\nsquared_error = 4.117\nsamples = 18\nvalue = 115.753"] ;
672 -> 676 ;
677 [label="X[1] <= 5.16\nsquared_error = 2.829\nsamples = 17\nvalue = 115.462"] ;
676 -> 677 ;
678 [label="X[0] <= 11.384\nsquared_error = 2.333\nsamples = 16\nvalue = 115.661"] ;
677 -> 678 ;
679 [label="X[1] <= 2.165\nsquared_error = 1.797\nsamples = 11\nvalue = 116.167"] ;
678 -> 679 ;
680 [label="X[0] <= 9.124\nsquared_error = 1.573\nsamples = 8\nvalue = 116.477"] ;
679 -> 680 ;
681 [label="X[0] <= 7.211\nsquared_error = 0.742\nsamples = 7\nvalue = 116.114"] ;
680 -> 681 ;
682 [label="X[0] <= 5.69\nsquared_error = 0.41\nsamples = 4\nvalue = 115.61"] ;
681 -> 682 ;
683 [label="squared_error = 0.0\nsamples = 1\nvalue = 116.6"] ;
682 -> 683 ;
684 [label="X[1] <= -4.47\nsquared_error = 0.11\nsamples = 3\nvalue = 115.28"] ;
682 -> 684 ;
685 [label="squared_error = 0.0\nsamples = 1\nvalue = 115.75"] ;
684 -> 685 ;
686 [label="X[0] <= 6.095\nsquared_error = 0.0\nsamples = 2\nvalue = 115.045"] ;
684 -> 686 ;
687 [label="squared_error = 0.0\nsamples = 1\nvalue = 115.05"] ;
686 -> 687 ;
688 [label="squared_error = 0.0\nsamples = 1\nvalue = 115.04"] ;
686 -> 688 ;
689 [label="X[0] <= 8.412\nsquared_error = 0.394\nsamples = 3\nvalue = 116.787"] ;
681 -> 689 ;
690 [label="X[0] <= 7.812\nsquared_error = 0.102\nsamples = 2\nvalue = 117.19"] ;
689 -> 690 ;
691 [label="squared_error = 0.0\nsamples = 1\nvalue = 116.87"] ;
690 -> 691 ;
692 [label="squared_error = 0.0\nsamples = 1\nvalue = 117.51"] ;
690 -> 692 ;
693 [label="squared_error = 0.0\nsamples = 1\nvalue = 115.98"] ;
689 -> 693 ;
694 [label="squared_error = 0.0\nsamples = 1\nvalue = 119.02"] ;
680 -> 694 ;
695 [label="X[0] <= 10.693\nsquared_error = 1.455\nsamples = 3\nvalue = 115.34"] ;
679 -> 695 ;
696 [label="X[0] <= 9.52\nsquared_error = 0.189\nsamples = 2\nvalue = 114.525"] ;
695 -> 696 ;
697 [label="squared_error = 0.0\nsamples = 1\nvalue = 114.96"] ;
696 -> 697 ;
698 [label="squared_error = 0.0\nsamples = 1\nvalue = 114.09"] ;
696 -> 698 ;
699 [label="squared_error = -0.0\nsamples = 1\nvalue = 116.97"] ;
695 -> 699 ;
700 [label="X[1] <= 1.14\nsquared_error = 1.707\nsamples = 5\nvalue = 114.546"] ;
678 -> 700 ;
701 [label="X[0] <= 11.765\nsquared_error = 0.94\nsamples = 4\nvalue = 114.058"] ;
700 -> 701 ;
702 [label="X[1] <= -1.275\nsquared_error = 0.003\nsamples = 2\nvalue = 115.025"] ;
701 -> 702 ;
703 [label="squared_error = 0.0\nsamples = 1\nvalue = 114.97"] ;
702 -> 703 ;
704 [label="squared_error = -0.0\nsamples = 1\nvalue = 115.08"] ;
702 -> 704 ;
705 [label="X[0] <= 11.829\nsquared_error = 0.005\nsamples = 2\nvalue = 113.09"] ;
701 -> 705 ;
706 [label="squared_error = 0.0\nsamples = 1\nvalue = 113.02"] ;
705 -> 706 ;
707 [label="squared_error = -0.0\nsamples = 1\nvalue = 113.16"] ;
705 -> 707 ;
708 [label="squared_error = 0.0\nsamples = 1\nvalue = 116.5"] ;
700 -> 708 ;
709 [label="squared_error = 0.0\nsamples = 1\nvalue = 112.28"] ;
677 -> 709 ;
710 [label="squared_error = 0.0\nsamples = 1\nvalue = 120.71"] ;
676 -> 710 ;
711 [label="X[0] <= 3.153\nsquared_error = 8266.999\nsamples = 61\nvalue = 201.5"] ;
67 -> 711 ;
712 [label="X[0] <= 1.584\nsquared_error = 8345.343\nsamples = 54\nvalue = 212.171"] ;
711 -> 712 ;
713 [label="X[0] <= 0.985\nsquared_error = 7218.757\nsamples = 44\nvalue = 191.298"] ;
712 -> 713 ;
714 [label="X[1] <= 6.575\nsquared_error = 9216.837\nsamples = 25\nvalue = 228.997"] ;
713 -> 714 ;
715 [label="X[0] <= 0.827\nsquared_error = 319.439\nsamples = 6\nvalue = 153.05"] ;
714 -> 715 ;
716 [label="X[0] <= 0.538\nsquared_error = 235.479\nsamples = 5\nvalue = 158.014"] ;
715 -> 716 ;
717 [label="X[1] <= 6.045\nsquared_error = 240.179\nsamples = 4\nvalue = 154.722"] ;
716 -> 717 ;
718 [label="squared_error = 0.0\nsamples = 1\nvalue = 136.87"] ;
717 -> 718 ;
719 [label="X[1] <= 6.465\nsquared_error = 178.589\nsamples = 3\nvalue = 160.673"] ;
717 -> 719 ;
720 [label="X[1] <= 6.25\nsquared_error = 165.508\nsamples = 2\nvalue = 166.515"] ;
719 -> 720 ;
721 [label="squared_error = 0.0\nsamples = 1\nvalue = 153.65"] ;
720 -> 721 ;
722 [label="squared_error = 0.0\nsamples = 1\nvalue = 179.38"] ;
720 -> 722 ;
723 [label="squared_error = 0.0\nsamples = 1\nvalue = 148.99"] ;
719 -> 723 ;
724 [label="squared_error = -0.0\nsamples = 1\nvalue = 171.18"] ;
716 -> 724 ;
725 [label="squared_error = 0.0\nsamples = 1\nvalue = 128.23"] ;
715 -> 725 ;
726 [label="X[1] <= 9.535\nsquared_error = 9629.876\nsamples = 19\nvalue = 252.981"] ;
714 -> 726 ;
727 [label="X[1] <= 7.845\nsquared_error = 9780.993\nsamples = 14\nvalue = 276.222"] ;
726 -> 727 ;
728 [label="X[0] <= 0.763\nsquared_error = 8847.738\nsamples = 8\nvalue = 232.355"] ;
727 -> 728 ;
729 [label="X[1] <= 7.47\nsquared_error = 6582.146\nsamples = 5\nvalue = 285.62"] ;
728 -> 729 ;
730 [label="X[0] <= 0.658\nsquared_error = 63.852\nsamples = 4\nvalue = 326.028"] ;
729 -> 730 ;
731 [label="X[0] <= 0.114\nsquared_error = 12.631\nsamples = 3\nvalue = 321.77"] ;
730 -> 731 ;
732 [label="X[0] <= -0.407\nsquared_error = 0.792\nsamples = 2\nvalue = 324.23"] ;
731 -> 732 ;
733 [label="squared_error = 0.0\nsamples = 1\nvalue = 323.34"] ;
732 -> 733 ;
734 [label="squared_error = -0.0\nsamples = 1\nvalue = 325.12"] ;
732 -> 734 ;
735 [label="squared_error = 0.0\nsamples = 1\nvalue = 316.85"] ;
731 -> 735 ;
736 [label="squared_error = -0.0\nsamples = 1\nvalue = 338.8"] ;
730 -> 736 ;
737 [label="squared_error = 0.0\nsamples = 1\nvalue = 123.99"] ;
729 -> 737 ;
738 [label="X[1] <= 7.245\nsquared_error = 14.123\nsamples = 3\nvalue = 143.58"] ;
728 -> 738 ;
739 [label="X[1] <= 7.045\nsquared_error = 1.061\nsamples = 2\nvalue = 140.99"] ;
738 -> 739 ;
740 [label="squared_error = 0.0\nsamples = 1\nvalue = 139.96"] ;
739 -> 740 ;
741 [label="squared_error = 0.0\nsamples = 1\nvalue = 142.02"] ;
739 -> 741 ;
742 [label="squared_error = 0.0\nsamples = 1\nvalue = 148.76"] ;
738 -> 742 ;
743 [label="X[0] <= 0.221\nsquared_error = 5038.54\nsamples = 6\nvalue = 334.712"] ;
727 -> 743 ;
744 [label="squared_error = 0.0\nsamples = 1\nvalue = 180.33"] ;
743 -> 744 ;
745 [label="X[0] <= 0.584\nsquared_error = 326.16\nsamples = 5\nvalue = 365.588"] ;
743 -> 745 ;
746 [label="squared_error = 0.0\nsamples = 1\nvalue = 381.91"] ;
745 -> 746 ;
747 [label="X[0] <= 0.683\nsquared_error = 324.447\nsamples = 4\nvalue = 361.508"] ;
745 -> 747 ;
748 [label="squared_error = 0.0\nsamples = 1\nvalue = 342.99"] ;
747 -> 748 ;
749 [label="X[1] <= 9.0\nsquared_error = 280.198\nsamples = 3\nvalue = 367.68"] ;
747 -> 749 ;
750 [label="X[1] <= 8.28\nsquared_error = 15.92\nsamples = 2\nvalue = 356.07"] ;
749 -> 750 ;
751 [label="squared_error = 0.0\nsamples = 1\nvalue = 352.08"] ;
750 -> 751 ;
752 [label="squared_error = 0.0\nsamples = 1\nvalue = 360.06"] ;
750 -> 752 ;
753 [label="squared_error = 0.0\nsamples = 1\nvalue = 390.9"] ;
749 -> 753 ;
754 [label="X[0] <= -1.144\nsquared_error = 3459.31\nsamples = 5\nvalue = 187.904"] ;
726 -> 754 ;
755 [label="squared_error = 0.0\nsamples = 1\nvalue = 302.74"] ;
754 -> 755 ;
756 [label="X[1] <= 9.77\nsquared_error = 203.104\nsamples = 4\nvalue = 159.195"] ;
754 -> 756 ;
757 [label="squared_error = 0.0\nsamples = 1\nvalue = 179.29"] ;
756 -> 757 ;
758 [label="X[0] <= 0.467\nsquared_error = 91.335\nsamples = 3\nvalue = 152.497"] ;
756 -> 758 ;
759 [label="squared_error = 0.0\nsamples = 1\nvalue = 139.07"] ;
758 -> 759 ;
760 [label="X[1] <= 10.28\nsquared_error = 1.796\nsamples = 2\nvalue = 159.21"] ;
758 -> 760 ;
761 [label="squared_error = 0.0\nsamples = 1\nvalue = 157.87"] ;
760 -> 761 ;
762 [label="squared_error = 0.0\nsamples = 1\nvalue = 160.55"] ;
760 -> 762 ;
763 [label="X[1] <= 10.173\nsquared_error = 259.065\nsamples = 19\nvalue = 141.694"] ;
713 -> 763 ;
764 [label="X[0] <= 1.215\nsquared_error = 111.562\nsamples = 16\nvalue = 136.247"] ;
763 -> 764 ;
765 [label="X[1] <= 8.12\nsquared_error = 94.304\nsamples = 10\nvalue = 141.345"] ;
764 -> 765 ;
766 [label="X[0] <= 1.044\nsquared_error = 53.829\nsamples = 5\nvalue = 135.786"] ;
765 -> 766 ;
767 [label="X[1] <= 7.015\nsquared_error = 0.002\nsamples = 2\nvalue = 127.855"] ;
766 -> 767 ;
768 [label="squared_error = 0.0\nsamples = 1\nvalue = 127.81"] ;
767 -> 768 ;
769 [label="squared_error = 0.0\nsamples = 1\nvalue = 127.9"] ;
767 -> 769 ;
770 [label="X[0] <= 1.096\nsquared_error = 19.823\nsamples = 3\nvalue = 141.073"] ;
766 -> 770 ;
771 [label="X[0] <= 1.073\nsquared_error = 0.874\nsamples = 2\nvalue = 144.175"] ;
770 -> 771 ;
772 [label="squared_error = 0.0\nsamples = 1\nvalue = 143.24"] ;
771 -> 772 ;
773 [label="squared_error = 0.0\nsamples = 1\nvalue = 145.11"] ;
771 -> 773 ;
774 [label="squared_error = 0.0\nsamples = 1\nvalue = 134.87"] ;
770 -> 774 ;
775 [label="X[0] <= 1.17\nsquared_error = 72.974\nsamples = 5\nvalue = 146.904"] ;
765 -> 775 ;
776 [label="X[1] <= 8.4\nsquared_error = 53.833\nsamples = 3\nvalue = 151.923"] ;
775 -> 776 ;
777 [label="X[0] <= 1.059\nsquared_error = 5.499\nsamples = 2\nvalue = 146.915"] ;
776 -> 777 ;
778 [label="squared_error = 0.0\nsamples = 1\nvalue = 149.26"] ;
777 -> 778 ;
779 [label="squared_error = 0.0\nsamples = 1\nvalue = 144.57"] ;
777 -> 779 ;
780 [label="squared_error = -0.0\nsamples = 1\nvalue = 161.94"] ;
776 -> 780 ;
781 [label="X[1] <= 10.032\nsquared_error = 7.209\nsamples = 2\nvalue = 139.375"] ;
775 -> 781 ;
782 [label="squared_error = 0.0\nsamples = 1\nvalue = 142.06"] ;
781 -> 782 ;
783 [label="squared_error = -0.0\nsamples = 1\nvalue = 136.69"] ;
781 -> 783 ;
784 [label="X[1] <= 8.051\nsquared_error = 24.804\nsamples = 6\nvalue = 127.75"] ;
764 -> 784 ;
785 [label="X[1] <= 7.41\nsquared_error = 0.005\nsamples = 2\nvalue = 123.01"] ;
784 -> 785 ;
786 [label="squared_error = 0.0\nsamples = 1\nvalue = 122.94"] ;
785 -> 786 ;
787 [label="squared_error = 0.0\nsamples = 1\nvalue = 123.08"] ;
785 -> 787 ;
788 [label="X[0] <= 1.415\nsquared_error = 20.356\nsamples = 4\nvalue = 130.119"] ;
784 -> 788 ;
789 [label="X[1] <= 8.54\nsquared_error = 14.592\nsamples = 2\nvalue = 126.54"] ;
788 -> 789 ;
790 [label="squared_error = 0.0\nsamples = 1\nvalue = 130.36"] ;
789 -> 790 ;
791 [label="squared_error = -0.0\nsamples = 1\nvalue = 122.72"] ;
789 -> 791 ;
792 [label="X[0] <= 1.531\nsquared_error = 0.495\nsamples = 2\nvalue = 133.699"] ;
788 -> 792 ;
793 [label="squared_error = 0.0\nsamples = 1\nvalue = 132.995"] ;
792 -> 793 ;
794 [label="squared_error = 0.0\nsamples = 1\nvalue = 134.403"] ;
792 -> 794 ;
795 [label="X[0] <= 1.167\nsquared_error = 43.628\nsamples = 3\nvalue = 170.743"] ;
763 -> 795 ;
796 [label="squared_error = 0.0\nsamples = 1\nvalue = 161.41"] ;
795 -> 796 ;
797 [label="X[1] <= 10.365\nsquared_error = 0.109\nsamples = 2\nvalue = 175.41"] ;
795 -> 797 ;
798 [label="squared_error = 0.0\nsamples = 1\nvalue = 175.08"] ;
797 -> 798 ;
799 [label="squared_error = -0.0\nsamples = 1\nvalue = 175.74"] ;
797 -> 799 ;
800 [label="X[0] <= 2.22\nsquared_error = 2950.901\nsamples = 10\nvalue = 304.01"] ;
712 -> 800 ;
801 [label="X[0] <= 2.123\nsquared_error = 303.75\nsamples = 7\nvalue = 287.923"] ;
800 -> 801 ;
802 [label="X[1] <= 5.95\nsquared_error = 134.426\nsamples = 6\nvalue = 293.528"] ;
801 -> 802 ;
803 [label="squared_error = 0.0\nsamples = 1\nvalue = 309.54"] ;
802 -> 803 ;
804 [label="X[0] <= 1.769\nsquared_error = 99.781\nsamples = 5\nvalue = 290.326"] ;
802 -> 804 ;
805 [label="squared_error = 0.0\nsamples = 1\nvalue = 278.58"] ;
804 -> 805 ;
806 [label="X[1] <= 6.63\nsquared_error = 81.612\nsamples = 4\nvalue = 293.262"] ;
804 -> 806 ;
807 [label="X[0] <= 2.01\nsquared_error = 8.702\nsamples = 2\nvalue = 286.12"] ;
806 -> 807 ;
808 [label="squared_error = 0.0\nsamples = 1\nvalue = 289.07"] ;
807 -> 808 ;
809 [label="squared_error = 0.0\nsamples = 1\nvalue = 283.17"] ;
807 -> 809 ;
810 [label="X[0] <= 1.995\nsquared_error = 52.49\nsamples = 2\nvalue = 300.405"] ;
806 -> 810 ;
811 [label="squared_error = 0.0\nsamples = 1\nvalue = 293.16"] ;
810 -> 811 ;
812 [label="squared_error = 0.0\nsamples = 1\nvalue = 307.65"] ;
810 -> 812 ;
813 [label="squared_error = -0.0\nsamples = 1\nvalue = 254.29"] ;
801 -> 813 ;
814 [label="X[1] <= 7.59\nsquared_error = 7114.726\nsamples = 3\nvalue = 341.547"] ;
800 -> 814 ;
815 [label="squared_error = 0.0\nsamples = 1\nvalue = 458.43"] ;
814 -> 815 ;
816 [label="X[0] <= 2.56\nsquared_error = 425.803\nsamples = 2\nvalue = 283.105"] ;
814 -> 816 ;
817 [label="squared_error = 0.0\nsamples = 1\nvalue = 303.74"] ;
816 -> 817 ;
818 [label="squared_error = 0.0\nsamples = 1\nvalue = 262.47"] ;
816 -> 818 ;
819 [label="X[1] <= 8.255\nsquared_error = 8.638\nsamples = 7\nvalue = 119.186"] ;
711 -> 819 ;
820 [label="X[0] <= 7.112\nsquared_error = 8.316\nsamples = 4\nvalue = 120.752"] ;
819 -> 820 ;
821 [label="squared_error = 0.0\nsamples = 1\nvalue = 116.32"] ;
820 -> 821 ;
822 [label="X[0] <= 11.3\nsquared_error = 2.356\nsamples = 3\nvalue = 122.23"] ;
820 -> 822 ;
823 [label="X[1] <= 7.025\nsquared_error = 0.002\nsamples = 2\nvalue = 121.145"] ;
822 -> 823 ;
824 [label="squared_error = 0.0\nsamples = 1\nvalue = 121.19"] ;
823 -> 824 ;
825 [label="squared_error = 0.0\nsamples = 1\nvalue = 121.1"] ;
823 -> 825 ;
826 [label="squared_error = 0.0\nsamples = 1\nvalue = 124.4"] ;
822 -> 826 ;
827 [label="X[1] <= 9.26\nsquared_error = 1.429\nsamples = 3\nvalue = 117.097"] ;
819 -> 827 ;
828 [label="X[0] <= 11.351\nsquared_error = 0.24\nsamples = 2\nvalue = 116.3"] ;
827 -> 828 ;
829 [label="squared_error = 0.0\nsamples = 1\nvalue = 115.81"] ;
828 -> 829 ;
830 [label="squared_error = -0.0\nsamples = 1\nvalue = 116.79"] ;
828 -> 830 ;
831 [label="squared_error = -0.0\nsamples = 1\nvalue = 118.69"] ;
827 -> 831 ;
832 [label="X[1] <= 34.445\nsquared_error = 8489.464\nsamples = 61\nvalue = 349.241"] ;
0 -> 832 [labeldistance=2.5, labelangle=-45, headlabel="False"] ;
833 [label="X[1] <= 10.795\nsquared_error = 6973.513\nsamples = 52\nvalue = 328.886"] ;
832 -> 833 ;
834 [label="squared_error = 0.0\nsamples = 1\nvalue = 462.83"] ;
833 -> 834 ;
835 [label="X[1] <= 10.855\nsquared_error = 6751.568\nsamples = 51\nvalue = 326.26"] ;
833 -> 835 ;
836 [label="squared_error = 0.0\nsamples = 1\nvalue = 174.56"] ;
835 -> 836 ;
837 [label="X[1] <= 15.255\nsquared_error = 6417.137\nsamples = 50\nvalue = 329.294"] ;
835 -> 837 ;
838 [label="X[1] <= 14.985\nsquared_error = 5282.603\nsamples = 21\nvalue = 348.031"] ;
837 -> 838 ;
839 [label="X[1] <= 11.35\nsquared_error = 4498.703\nsamples = 19\nvalue = 336.743"] ;
838 -> 839 ;
840 [label="X[0] <= 0.817\nsquared_error = 6856.71\nsamples = 4\nvalue = 300.58"] ;
839 -> 840 ;
841 [label="X[1] <= 11.05\nsquared_error = 485.839\nsamples = 3\nvalue = 347.1"] ;
840 -> 841 ;
842 [label="X[1] <= 10.915\nsquared_error = 131.905\nsamples = 2\nvalue = 361.205"] ;
841 -> 842 ;
843 [label="squared_error = 0.0\nsamples = 1\nvalue = 372.69"] ;
842 -> 843 ;
844 [label="squared_error = -0.0\nsamples = 1\nvalue = 349.72"] ;
842 -> 844 ;
845 [label="squared_error = -0.0\nsamples = 1\nvalue = 318.89"] ;
841 -> 845 ;
846 [label="squared_error = 0.0\nsamples = 1\nvalue = 161.02"] ;
840 -> 846 ;
847 [label="X[1] <= 13.47\nsquared_error = 3428.164\nsamples = 15\nvalue = 346.387"] ;
839 -> 847 ;
848 [label="X[1] <= 11.71\nsquared_error = 3733.217\nsamples = 9\nvalue = 367.691"] ;
847 -> 848 ;
849 [label="X[0] <= 0.086\nsquared_error = 1472.532\nsamples = 4\nvalue = 333.463"] ;
848 -> 849 ;
850 [label="squared_error = 0.0\nsamples = 1\nvalue = 393.43"] ;
849 -> 850 ;
851 [label="X[1] <= 11.62\nsquared_error = 365.108\nsamples = 3\nvalue = 313.473"] ;
849 -> 851 ;
852 [label="X[1] <= 11.595\nsquared_error = 50.623\nsamples = 2\nvalue = 326.345"] ;
851 -> 852 ;
853 [label="squared_error = 0.0\nsamples = 1\nvalue = 319.23"] ;
852 -> 853 ;
854 [label="squared_error = -0.0\nsamples = 1\nvalue = 333.46"] ;
852 -> 854 ;
855 [label="squared_error = -0.0\nsamples = 1\nvalue = 287.73"] ;
851 -> 855 ;
856 [label="X[1] <= 12.345\nsquared_error = 3854.665\nsamples = 5\nvalue = 395.074"] ;
848 -> 856 ;
857 [label="squared_error = 0.0\nsamples = 1\nvalue = 452.04"] ;
856 -> 857 ;
858 [label="X[1] <= 12.98\nsquared_error = 3804.229\nsamples = 4\nvalue = 380.832"] ;
856 -> 858 ;
859 [label="squared_error = 0.0\nsamples = 1\nvalue = 300.63"] ;
858 -> 859 ;
860 [label="X[0] <= 1.111\nsquared_error = 2213.443\nsamples = 3\nvalue = 407.567"] ;
858 -> 860 ;
861 [label="X[1] <= 13.245\nsquared_error = 99.202\nsamples = 2\nvalue = 374.8"] ;
860 -> 861 ;
862 [label="squared_error = 0.0\nsamples = 1\nvalue = 364.84"] ;
861 -> 862 ;
863 [label="squared_error = 0.0\nsamples = 1\nvalue = 384.76"] ;
861 -> 863 ;
864 [label="squared_error = 0.0\nsamples = 1\nvalue = 473.1"] ;
860 -> 864 ;
865 [label="X[0] <= 4.145\nsquared_error = 1268.536\nsamples = 6\nvalue = 314.43"] ;
847 -> 865 ;
866 [label="X[1] <= 14.15\nsquared_error = 1282.133\nsamples = 5\nvalue = 320.756"] ;
865 -> 866 ;
867 [label="X[1] <= 13.62\nsquared_error = 947.898\nsamples = 4\nvalue = 309.312"] ;
866 -> 867 ;
868 [label="X[0] <= 0.492\nsquared_error = 4.84\nsamples = 2\nvalue = 333.7"] ;
867 -> 868 ;
869 [label="squared_error = 0.0\nsamples = 1\nvalue = 331.5"] ;
868 -> 869 ;
870 [label="squared_error = 0.0\nsamples = 1\nvalue = 335.9"] ;
868 -> 870 ;
871 [label="X[0] <= 1.355\nsquared_error = 701.455\nsamples = 2\nvalue = 284.925"] ;
867 -> 871 ;
872 [label="squared_error = 0.0\nsamples = 1\nvalue = 258.44"] ;
871 -> 872 ;
873 [label="squared_error = 0.0\nsamples = 1\nvalue = 311.41"] ;
871 -> 873 ;
874 [label="squared_error = 0.0\nsamples = 1\nvalue = 366.53"] ;
866 -> 874 ;
875 [label="squared_error = 0.0\nsamples = 1\nvalue = 282.8"] ;
865 -> 875 ;
876 [label="X[0] <= 4.127\nsquared_error = 19.01\nsamples = 2\nvalue = 455.27"] ;
838 -> 876 ;
877 [label="squared_error = 0.0\nsamples = 1\nvalue = 459.63"] ;
876 -> 877 ;
878 [label="squared_error = 0.0\nsamples = 1\nvalue = 450.91"] ;
876 -> 878 ;
879 [label="X[1] <= 15.435\nsquared_error = 6800.354\nsamples = 29\nvalue = 315.726"] ;
837 -> 879 ;
880 [label="squared_error = 0.0\nsamples = 1\nvalue = 143.16"] ;
879 -> 880 ;
881 [label="X[1] <= 18.56\nsquared_error = 5941.709\nsamples = 28\nvalue = 321.889"] ;
879 -> 881 ;
882 [label="X[0] <= 0.923\nsquared_error = 7768.15\nsamples = 8\nvalue = 292.418"] ;
881 -> 882 ;
883 [label="X[1] <= 17.535\nsquared_error = 2592.122\nsamples = 6\nvalue = 336.162"] ;
882 -> 883 ;
884 [label="X[0] <= -0.55\nsquared_error = 1234.132\nsamples = 5\nvalue = 353.846"] ;
883 -> 884 ;
885 [label="squared_error = 0.0\nsamples = 1\nvalue = 289.03"] ;
884 -> 885 ;
886 [label="X[0] <= 0.733\nsquared_error = 229.817\nsamples = 4\nvalue = 370.05"] ;
884 -> 886 ;
887 [label="X[1] <= 16.055\nsquared_error = 11.765\nsamples = 2\nvalue = 384.8"] ;
886 -> 887 ;
888 [label="squared_error = 0.0\nsamples = 1\nvalue = 388.23"] ;
887 -> 888 ;
889 [label="squared_error = 0.0\nsamples = 1\nvalue = 381.37"] ;
887 -> 889 ;
890 [label="X[0] <= 0.85\nsquared_error = 12.745\nsamples = 2\nvalue = 355.3"] ;
886 -> 890 ;
891 [label="squared_error = 0.0\nsamples = 1\nvalue = 358.87"] ;
890 -> 891 ;
892 [label="squared_error = 0.0\nsamples = 1\nvalue = 351.73"] ;
890 -> 892 ;
893 [label="squared_error = -0.0\nsamples = 1\nvalue = 247.74"] ;
883 -> 893 ;
894 [label="X[0] <= 1.238\nsquared_error = 333.61\nsamples = 2\nvalue = 161.185"] ;
882 -> 894 ;
895 [label="squared_error = 0.0\nsamples = 1\nvalue = 142.92"] ;
894 -> 895 ;
896 [label="squared_error = -0.0\nsamples = 1\nvalue = 179.45"] ;
894 -> 896 ;
897 [label="X[0] <= 2.574\nsquared_error = 4724.748\nsamples = 20\nvalue = 333.677"] ;
881 -> 897 ;
898 [label="X[0] <= 2.341\nsquared_error = 5040.617\nsamples = 11\nvalue = 358.043"] ;
897 -> 898 ;
899 [label="X[1] <= 29.08\nsquared_error = 3326.724\nsamples = 10\nvalue = 343.843"] ;
898 -> 899 ;
900 [label="X[1] <= 19.485\nsquared_error = 2717.733\nsamples = 9\nvalue = 353.736"] ;
899 -> 900 ;
901 [label="X[1] <= 18.695\nsquared_error = 1454.047\nsamples = 4\nvalue = 316.752"] ;
900 -> 901 ;
902 [label="squared_error = 0.0\nsamples = 1\nvalue = 382.73"] ;
901 -> 902 ;
903 [label="X[1] <= 19.19\nsquared_error = 4.049\nsamples = 3\nvalue = 294.76"] ;
901 -> 903 ;
904 [label="X[0] <= 2.117\nsquared_error = 3.534\nsamples = 2\nvalue = 295.68"] ;
903 -> 904 ;
905 [label="squared_error = 0.0\nsamples = 1\nvalue = 297.56"] ;
904 -> 905 ;
906 [label="squared_error = 0.0\nsamples = 1\nvalue = 293.8"] ;
904 -> 906 ;
907 [label="squared_error = -0.0\nsamples = 1\nvalue = 292.92"] ;
903 -> 907 ;
908 [label="X[1] <= 22.7\nsquared_error = 1759.127\nsamples = 5\nvalue = 383.322"] ;
900 -> 908 ;
909 [label="X[0] <= 0.859\nsquared_error = 284.838\nsamples = 3\nvalue = 367.173"] ;
908 -> 909 ;
910 [label="X[0] <= 0.35\nsquared_error = 24.157\nsamples = 2\nvalue = 378.765"] ;
909 -> 910 ;
911 [label="squared_error = 0.0\nsamples = 1\nvalue = 373.85"] ;
910 -> 911 ;
912 [label="squared_error = 0.0\nsamples = 1\nvalue = 383.68"] ;
910 -> 912 ;
913 [label="squared_error = 0.0\nsamples = 1\nvalue = 343.99"] ;
909 -> 913 ;
914 [label="X[0] <= 1.806\nsquared_error = 2992.637\nsamples = 2\nvalue = 407.545"] ;
908 -> 914 ;
915 [label="squared_error = 0.0\nsamples = 1\nvalue = 462.25"] ;
914 -> 915 ;
916 [label="squared_error = 0.0\nsamples = 1\nvalue = 352.84"] ;
914 -> 916 ;
917 [label="squared_error = 0.0\nsamples = 1\nvalue = 254.81"] ;
899 -> 917 ;
918 [label="squared_error = -0.0\nsamples = 1\nvalue = 500.04"] ;
898 -> 918 ;
919 [label="X[1] <= 20.015\nsquared_error = 2726.199\nsamples = 9\nvalue = 303.897"] ;
897 -> 919 ;
920 [label="squared_error = 0.0\nsamples = 1\nvalue = 444.45"] ;
919 -> 920 ;
921 [label="X[0] <= 3.5\nsquared_error = 288.894\nsamples = 8\nvalue = 286.328"] ;
919 -> 921 ;
922 [label="X[1] <= 21.455\nsquared_error = 5.954\nsamples = 2\nvalue = 312.57"] ;
921 -> 922 ;
923 [label="squared_error = 0.0\nsamples = 1\nvalue = 310.13"] ;
922 -> 923 ;
924 [label="squared_error = 0.0\nsamples = 1\nvalue = 315.01"] ;
922 -> 924 ;
925 [label="X[0] <= 5.485\nsquared_error = 77.132\nsamples = 6\nvalue = 277.58"] ;
921 -> 925 ;
926 [label="X[0] <= 4.758\nsquared_error = 9.212\nsamples = 3\nvalue = 269.103"] ;
925 -> 926 ;
927 [label="X[1] <= 24.11\nsquared_error = 0.922\nsamples = 2\nvalue = 267.03"] ;
926 -> 927 ;
928 [label="squared_error = 0.0\nsamples = 1\nvalue = 267.99"] ;
927 -> 928 ;
929 [label="squared_error = 0.0\nsamples = 1\nvalue = 266.07"] ;
927 -> 929 ;
930 [label="squared_error = 0.0\nsamples = 1\nvalue = 273.25"] ;
926 -> 930 ;
931 [label="X[0] <= 6.173\nsquared_error = 1.345\nsamples = 3\nvalue = 286.057"] ;
925 -> 931 ;
932 [label="X[0] <= 6.073\nsquared_error = 0.032\nsamples = 2\nvalue = 286.87"] ;
931 -> 932 ;
933 [label="squared_error = 0.0\nsamples = 1\nvalue = 287.05"] ;
932 -> 933 ;
934 [label="squared_error = -0.0\nsamples = 1\nvalue = 286.69"] ;
932 -> 934 ;
935 [label="squared_error = 0.0\nsamples = 1\nvalue = 284.43"] ;
931 -> 935 ;
936 [label="X[1] <= 49.79\nsquared_error = 1023.659\nsamples = 9\nvalue = 466.846"] ;
832 -> 936 ;
937 [label="X[1] <= 40.555\nsquared_error = 11.443\nsamples = 4\nvalue = 501.575"] ;
936 -> 937 ;
938 [label="X[1] <= 37.45\nsquared_error = 0.828\nsamples = 2\nvalue = 498.39"] ;
937 -> 938 ;
939 [label="squared_error = 0.0\nsamples = 1\nvalue = 499.3"] ;
938 -> 939 ;
940 [label="squared_error = 0.0\nsamples = 1\nvalue = 497.48"] ;
938 -> 940 ;
941 [label="X[1] <= 44.13\nsquared_error = 1.769\nsamples = 2\nvalue = 504.76"] ;
937 -> 941 ;
942 [label="squared_error = 0.0\nsamples = 1\nvalue = 506.09"] ;
941 -> 942 ;
943 [label="squared_error = 0.0\nsamples = 1\nvalue = 503.43"] ;
941 -> 943 ;
944 [label="X[0] <= 5.664\nsquared_error = 96.599\nsamples = 5\nvalue = 439.062"] ;
936 -> 944 ;
945 [label="X[1] <= 55.545\nsquared_error = 35.175\nsamples = 4\nvalue = 434.925"] ;
944 -> 945 ;
946 [label="squared_error = 0.0\nsamples = 1\nvalue = 425.04"] ;
945 -> 946 ;
947 [label="X[1] <= 58.3\nsquared_error = 3.472\nsamples = 3\nvalue = 438.22"] ;
945 -> 947 ;
948 [label="squared_error = 0.0\nsamples = 1\nvalue = 435.75"] ;
947 -> 948 ;
949 [label="X[0] <= 4.808\nsquared_error = 0.632\nsamples = 2\nvalue = 439.455"] ;
947 -> 949 ;
950 [label="squared_error = 0.0\nsamples = 1\nvalue = 438.66"] ;
949 -> 950 ;
951 [label="squared_error = -0.0\nsamples = 1\nvalue = 440.25"] ;
949 -> 951 ;
952 [label="squared_error = -0.0\nsamples = 1\nvalue = 455.61"] ;
944 -> 952 ;
}
